  -0.168656 0.217882 0.0115541 0.186658 0.0486787 -0.233529 -0.0456845 -0.0840231 -0.00708433 0.43625 -0.177214 0.060058 0.134184 -0.0596281 -0.195956 -0.0412435 -0.0702423 0.465602 -0.0689026 -0.00556204 -0.106666 0.0629577 -0.0680761 -0.0552475 -0.0421661 -0.0374198 0.0292503 0.0285282 0.0539004 0.107147 0.0681775 0.108269 -0.0130998 -0.050044 0.083742 0.0319432 0.0272691 -0.000231114 -0.0795964 -0.107975 0.121289 0.122014 0.0027299 -0.00267098 -0.056445 0.00105546 -0.165551 0.0962912 0.0528927 -0.00593534 -0.0789178 -0.133196 -0.058274 -0.0759642 -0.0513149 0.0337992 -0.0233616 -0.00116104 -0.0596311 -0.123847 -0.0270556 0.0126455 -0.0232773 0.282554 0.140244 -0.14212 -0.0426963 0.147384 -0.0624472 0.216691 0.103725 -0.0522955 0.0315563 0.0376049 -0.0392933 0.170345 -0.00814535 -0.0810945 -0.0151156 0.0960359 0.0697533 0.0419437 0.0184648 0.00563343 0.186033 -0.0601815 -0.169014 0.0293973 0.261026 0.0293045 -0.126498 0.0778335 0.0176509 -0.0177436 -0.0469236 -0.325518 0.0619664 -0.0787163 0.0984325 -0.0530713 0.134081 -0.0371918 0.00334282 0.0164 0.0730649 0.264967 -0.0317246 -0.0886049 0.126778 0.121425 0.0912925 -0.114014 0.139391 -0.0397715 0.0640557 -0.0160505 0.111573 -0.0219187 0.0988322 0.136411 0.0057307 0.0249009 -0.0310167 -0.0774209 -0.0133222 0.234966 0.0282342 0.000919469 -0.113609 -0.120027 0.124088 -0.0456476 0.0389486 -0.0811218 0.0236735 -0.0138102 -0.0351976 0.0535486 -0.000820273 -0.0862132 -0.296359 -0.0128314 0.0994964 0.0859579 0.0095686 0.0264447 -0.111505 0.0936945 0.150438 -0.139358 0.00589578 0.143748 0.0243259 0.0313758 -0.0284875 -0.0582153 -0.120802 0.00182493 -0.0808587 0.0136295 -0.02538 -0.0352123 -0.0584345 -0.159938 -0.240535 -0.0490876 0.0860435 -0.0508825 0.0166649 -0.0121439 -0.0566734 -0.080165 -0.0440859 -0.0232972 -0.0417287 0.070691 0.0147285 0.108197 0.140927 -0.0796426 -0.0059714 -0.0580741 0.0294701 -0.164921 -0.0653689 -0.0800178 -0.194895 0.00755281 -0.183609 0.000469124 -0.01001 0.0439806 0.000288827 0.0719741 -0.1304 0.0801938 -0.0505853 -0.0710941 -0.119874 0.0792179 0.117406 -0.045852 -0.038687 0.0807878 0.0821315 0.0328487 0.184927 -0.100808 0.0383818 -0.0498988 -0.0159758 -0.0636434 0.0111303 -0.0161509 0.189928 0.178778 -0.150027 0.0132416 -0.271797 0.00968379 0.0236615 -0.00692043 -0.130839 0.0673373 0.0274088 0.0786747 0.0919387 0.145115 -0.00904565 0.166289 -0.0130532 0.0330573 0.203553 -0.00831251 0.0152609 0.0149831 0.00818044 -0.0168253 -0.134688 0.0316931 -0.043755 -0.0367408 0.105313 -0.0762525 0.18923 -0.0277611 -0.00128104 0.0216919 -0.172136 -0.0220486 0.0467776 -0.0511207 0.0472623 -0.0694784 0.0738807 0.197019 -0.0153137 -0.160968 -0.110172 -0.133442 0.113391 0.175757 0.00442281 0.132034 0.148456 -0.218268 -0.0184685 0.0125826 0.245853 -0.17208 0.0256518 0.0229596 -0.0719039 -0.0174543 -0.0549118 0.014092 0.0152472 -0.013954 -0.0875202 0.141923 0.103055 0.0227873 0.0488625 0.10154 -0.045701 0.0682748 0.0774998 -0.174735 0.077949 0.0112045 -0.171179 0.050171 0.0660656 -0.0135917 0.00837164 -0.0130593 -0.0780448 -0.164868 0.0427808 0.0796008
u 0.264171 -0.263408 0.187362 -0.0561234 0.0754537 0.270098 0.314504 -0.036238 0.0578911 -1.11469 0.0336811 -0.126355 0.182749 -0.196449 0.397432 0.0926005 0.225561 -1.06535 0.00453135 0.133798 0.213877 -0.10543 0.00617766 0.0994546 -0.0896764 -0.245245 0.215333 -0.223804 -0.141629 0.077119 0.276015 -0.139302 0.179426 0.139036 -0.112999 -0.0412413 -0.0818647 0.0514927 -0.0483966 -0.0386487 -0.170842 0.0564054 -0.115245 -0.308938 -0.0448184 -0.329385 0.0716972 -0.36365 -0.121758 -0.168234 -0.149039 0.101113 0.152747 -0.114188 -0.184578 0.0676097 0.185525 -0.0673809 -0.0759571 -0.191661 0.0251779 -0.132314 -0.192908 -0.44615 -0.0742068 0.217655 -0.269101 -0.120594 -0.161205 -0.178761 -0.207554 0.352765 -0.0320793 0.0263144 -0.298159 0.0662334 -0.245629 -0.145483 -0.140978 0.0971077 0.0555161 0.255334 0.0473202 0.0643172 -0.0289828 0.223707 0.31931 0.168698 -0.356649 0.163013 0.234107 -0.0755732 -0.0458564 -0.205584 -0.129236 0.350955 -0.142181 0.050736 -0.17835 0.237662 0.0116205 -0.340024 -0.0483419 -0.0945416 -0.121666 -0.500838 0.146341 -0.0579059 0.0217663 -0.00731374 -0.0893321 0.0296477 -0.186125 0.0256374 -0.158895 -0.164311 -0.774129 0.219504 0.213021 0.16534 0.362963 -0.0267589 0.048358 0.130654 -0.152792 0.112378 -0.0366962 0.130702 0.306401 0.106759 -0.103997 -0.23686 0.273656 0.23123 -0.113699 -0.435563 0.0619555 0.00831098 -0.241681 0.227125 0.603829 0.170079 -0.277384 -0.27005 0.134753 0.201992 0.421576 0.0524831 0.0454475 -0.406699 0.184123 0.313844 0.119379 -0.113389 -0.188747 0.504773 0.449392 -0.557542 -0.0434504 -0.0859061 -0.104588 -0.0477645 -0.0660968 0.215961 0.184927 0.0740132 0.0544915 0.47147 0.105121 0.238012 0.180093 -0.304367 0.0480264 -0.102877 -0.00176156 -0.136676 -0.138138 0.170895 -0.507805 -0.175432 0.14038 -0.0388089 0.00757316 -0.226425 0.102581 -0.163519 0.112424 -0.371367 0.0868095 -0.169777 0.18854 0.145681 0.121071 -0.0676292 0.0731876 0.0186019 0.111833 -0.019158 0.166626 0.153413 -0.127219 0.058589 -0.0706313 0.167088 0.0122315 0.0562357 0.189346 -0.0482746 0.214556 -0.274878 -0.0379929 -0.0111882 -0.155613 -0.153099 0.140044 -0.218544 0.245249 0.185514 0.251365 -0.00969308 0.0777569 0.0406163 0.092348 -0.0864909 -0.194561 -0.0690585 0.458074 -0.0222665 -0.356234 -0.200602 -0.306363 0.102827 -0.0371486 -0.0121117 -0.0570221 0.248621 -0.227647 -0.296015 -0.154066 -0.0804015 0.110447 0.121691 -0.0135187 -0.169754 -0.212206 -0.217292 -0.16222 -0.413514 0.339818 -0.0261441 -0.186082 -0.155385 0.00119566 0.0427141 0.145585 -0.207735 -0.0294352 0.273232 0.261626 -0.251092 -0.251286 -0.154735 -0.0212058 0.31869 0.0206475 0.260806 0.241366 -0.127088 -0.391175 -0.282283 0.120912 -0.198882 0.184698 -0.0607292 0.0107491 0.091095 0.31235 -0.0846847 0.116295 -0.190423 0.00706833 -0.365113 -0.00264512 -0.459901 -0.0695433 0.198994 -0.000503014 0.0140953 -0.409429 -0.154875 0.0299392 -0.180978 -0.222552 0.169665 0.350202 -0.176511 -0.266568 0.102937 -0.0347916 -0.139893
y 0.210711 -0.192484 0.0401261 0.271211 -0.26025 -0.107201 -0.342025 0.120469 -0.0533656 -1.29802 0.302411 0.274047 0.0443012 -0.0325265 0.189578 -0.214596 -0.338857 -1.16866 0.104407 0.208983 0.091867 -0.271941 0.212059 -0.105383 -0.138384 0.0952262 -0.0294383 0.0612378 -0.00666795 0.0310999 -0.162081 -0.294555 0.227768 -0.0346698 -0.116897 -0.0326892 -0.260272 0.072424 -0.360872 0.418521 0.0839673 -0.19602 0.147536 0.294464 0.3771 -0.00545112 0.0347159 0.289452 -0.102442 0.0415111 -0.117335 0.266347 -0.247795 0.152822 0.127689 -0.0712854 0.524562 -0.242552 -0.006768 0.204229 0.114903 -0.0255567 -0.170838 -0.434963 -0.213055 0.0178996 -0.242532 0.402145 0.133442 0.0509473 0.0293289 0.0443344 -0.0690586 0.0602386 0.136216 0.0341795 0.197321 0.257996 -0.0716081 0.261805 0.101265 -0.0683678 -0.00307157 0.139454 0.222632 -0.0965715 0.144728 -0.00072626 -0.109439 -0.192147 0.119652 0.0864441 0.193052 0.207358 0.382752 0.38641 -0.215731 -0.153436 -0.265402 -0.103855 0.258248 -0.0559816 -0.271015 0.182948 -0.150265 -0.540179 0.173865 -0.193671 -0.0782511 -0.110619 0.0137942 0.328052 -0.280685 0.178637 -0.221369 0.172559 -0.00984901 -0.182122 -0.331579 0.236811 -0.0795454 -0.401583 0.0165171 0.0470741 0.194192 0.0145183 0.0684353 -0.251878 -0.0620554 0.316788 -0.241065 -0.195169 0.0932091 -0.228582 0.0928218 0.026166 0.0415918 -0.132591 0.012792 0.011072 0.359457 0.112218 -0.368104 -0.0883562 0.0524899 -0.19394 -0.204717 0.157005 0.128992 0.27523 0.00792091 0.0793005 -0.206673 -0.178482 0.0189093 -0.203434 0.0789685 -0.15701 -0.163036 -0.230638 0.162913 0.0889816 0.0597846 0.223279 0.271003 0.134427 0.0058499 0.230554 -0.0534001 -0.0529326 0.285916 0.484824 0.439553 -0.28006 -0.178672 -0.337118 -0.0952894 -0.21532 -0.262358 0.243775 0.256241 -0.134378 0.40314 0.0378762 0.349161 0.149631 0.195366 -0.198712 0.0544871 0.076432 -0.0133706 0.208441 0.375043 -0.245403 -0.285947 -0.117958 -0.0493158 0.145679 0.382085 -0.273272 -0.0915126 -0.111324 -0.0941245 -0.03903 -0.0527625 0.208222 -0.174507 -0.339289 0.0398205 -0.105523 0.155491 0.222323 0.212825 0.0871449 -0.258712 0.0140071 0.353397 0.0759974 0.69142 0.0255388 0.263282 0.0179852 0.000356677 0.0717537 -0.0150014 -0.0609194 -0.0467376 0.0917597 -0.0548037 -0.378603 0.271696 0.163428 0.0095608 0.0723245 -0.121812 0.429298 -0.119686 -0.412887 0.217519 0.0815722 -0.08714 -0.22636 -0.249483 0.402615 -0.00420015 -0.356592 -0.150446 -0.100797 0.378998 0.0440508 -0.0857994 0.0133886 0.293185 0.214976 -0.0490763 -0.0198632 0.103532 0.0424432 -0.0491354 -0.0957982 -0.1008 -0.00083714 -0.255495 -0.326746 0.258817 0.22492 -0.369093 0.301558 -0.523558 -0.0911132 -0.323394 -0.411966 -0.164819 0.179108 -0.289724 0.02121 0.0347096 0.0723183 0.232926 0.0883246 0.127537 -0.150733 -0.333545 -0.0529866 0.28144 0.099363 -0.242476 0.0727028 -0.317291 -0.0274223 0.0464263 -0.0302705 0.0738542 -0.00241268 -0.144828 -0.189238 0.259282 0.51955 0.10392 0.20384
e 0.0938929 0.0438122 0.180603 -0.211526 -0.1535 0.25801 0.239995 0.117473 -0.0898593 -0.753143 0.226411 -0.109773 -0.0573605 -0.0535958 0.0739606 0.0418029 -0.0680152 -1.09723 0.293644 -0.00839204 -0.0333872 0.0451012 0.20006 0.0140127 -0.123378 0.328976 0.0116332 0.0107122 0.0243885 -0.12451 -0.0649838 0.0425535 0.102614 0.0880838 0.00436495 -0.0236085 0.0612419 0.298157 0.00511234 -0.00247336 -0.200061 0.157561 0.0422123 0.197872 -0.012368 -0.181187 0.187593 -0.0183816 -0.0330786 0.204469 -0.0432003 -0.0442657 0.155718 -0.123926 0.0781035 -0.164564 -0.200335 -0.167405 0.0793642 -0.121576 -0.0957865 0.0135311 0.101564 -0.252187 -0.0299957 0.168765 0.101055 -0.0801818 -0.0478405 -0.0892786 -0.109944 0.151402 0.0765702 -0.115384 -0.0797752 -0.0434167 0.307931 -0.0506271 0.0349057 -0.108749 0.148791 0.0779474 0.00142498 0.00217369 0.167552 0.122136 0.28259 0.0228276 -0.232283 0.0435047 0.147258 -0.227748 0.0163965 0.138719 -0.124391 0.24139 0.0769213 0.0675201 -0.0885802 0.108524 -0.267676 0.0601159 -0.032403 -0.198359 -0.0344364 -0.418066 -0.0867505 0.0191616 -0.274439 -0.317715 -0.0428804 0.194327 -0.16754 0.1313 0.266264 0.185005 -0.0132036 0.131837 0.244171 -0.215744 0.0549577 -0.0677163 0.0210947 0.147846 0.124752 -0.0168355 -0.15389 0.127968 0.0949851 0.217103 -0.208416 0.0459661 0.182691 0.175625 -0.0314087 -0.154071 0.0615992 0.196456 -0.175734 0.124751 0.28007 0.0679942 -0.112197 -0.0565889 -0.144505 -0.0543731 -0.0266588 -0.0658977 -0.0586758 0.0510958 0.228196 0.111898 -0.0783984 -0.225972 -0.0383505 -0.0173358 0.334825 -0.0680416 -0.0862043 0.159505 0.0421828 0.132442 0.0599057 0.047734 0.287171 0.0531176 -0.0402822 0.0868054 0.0904948 0.0187633 0.111082 -0.0572544 0.01935 0.36277 0.0175067 -0.0601589 0.0585271 -0.313839 0.0277396 -0.13356 0.154185 -0.0940542 0.0543505 -0.0276504 -0.0237787 -0.0213557 0.19997 0.139375 0.10175 0.0756522 0.119828 0.161812 -0.0891059 0.116583 0.0468355 0.143625 0.189196 0.0348814 0.0917302 0.0865131 -0.139094 0.000168357 0.0970736 0.0119111 0.0733052 -0.0683933 0.147455 0.0827544 0.136399 -0.221663 -0.0191107 -0.1899 0.103732 -0.0415312 -0.221458 -0.161348 0.0957494 0.152411 0.293593 -0.127295 0.0321077 0.0429621 0.125723 0.0350295 -0.00871684 -0.116514 -0.193863 -0.174224 -0.202054 0.026668 0.450537 0.214073 -0.0531452 0.19081 -0.139795 -0.0470463 0.0424981 0.0494485 0.225188 -0.08834 0.10861 0.0668919 -0.20319 -0.148155 -0.237883 -0.00689361 -0.0453377 0.0996504 0.105487 -0.031059 -0.258276 -0.0149419 -0.0130084 0.162348 0.0772549 -0.388261 -0.0467132 0.0941905 0.178199 0.246494 -0.255802 -0.00127591 0.0143107 -0.0611472 0.0345329 0.134286 0.11375 0.257863 -0.178635 0.261299 -0.0970252 0.0115158 0.160775 -0.0202566 0.119683 0.0410129 0.217721 -0.0598902 -0.0178928 -0.0758813 0.00564036 -0.0726113 0.193857 -0.194418 0.0269626 -0.0611202 -0.0638048 -0.0415881 -0.146958 -0.0225477 0.177558 -0.0247224 0.181428 -0.109558 -0.0917079 -0.121332 0.180425 -0.041553 -0.154244 -0.128963
4 0.226162 -0.138205 0.207895 0.0382167 -0.377941 0.176989 0.211712 -0.048213 0.0341961 -1.5712 0.334629 0.0802106 -0.110251 0.153396 -0.0198711 -0.190081 0.12643 -0.97576 0.178296 0.313822 -0.0706979 0.185153 0.426154 0.106204 -0.117778 0.168791 0.170361 -0.258418 -0.0813171 0.311625 0.070954 0.0207401 -0.13202 0.125876 -0.369142 0.118612 -0.201827 0.163974 0.0413903 0.504697 -0.0797704 -0.462966 -0.235284 0.347654 0.0437402 0.187008 0.0307018 0.123663 -0.0185447 0.453675 0.0311774 0.416514 -0.364124 0.0340972 0.0460743 0.14195 -0.0150547 0.127951 0.103362 0.482872 0.0926796 -0.128923 -0.0308642 -0.63564 -0.317775 0.0771234 -0.0609321 -0.107639 -0.219892 -0.341768 -0.0924025 -0.371737 -0.283879 0.00193376 0.0983498 -0.0470427 0.0876375 0.450755 -0.119091 -0.230274 -0.0541644 -0.0862748 0.0803747 -0.0943294 -0.0434455 0.409295 0.788551 -0.125193 -0.388781 -0.301867 0.0159513 -0.217108 0.100637 0.220432 0.0341104 0.18298 -0.17549 -0.0295522 -0.0419163 -0.0359735 0.000570037 -0.247965 0.171419 0.147925 -0.00899338 -0.494421 -0.0742339 -0.299191 -0.0849929 0.109385 -0.0722029 0.217496 -0.0336101 0.109826 -0.0925205 0.36484 -0.140676 -0.148933 0.113568 -0.241393 -0.127602 0.0988513 -0.135982 0.0453187 -0.0456421 -0.0498105 -0.224904 0.228135 0.267015 0.127786 0.0989988 -0.0131366 0.180851 -0.091409 -0.397327 0.0749768 0.0102265 0.176369 -0.116821 0.124802 0.984367 0.0972015 -0.176612 0.0399276 -0.033861 0.235794 0.0629292 -0.0551653 -0.157514 0.134832 -0.233128 -0.300929 0.0247948 0.000533561 0.0830247 0.207025 0.347473 -0.13018 -0.0996188 0.272038 -0.123493 -0.154086 0.20811 0.203458 0.131774 0.312281 -0.252384 0.116692 -0.347425 0.0644189 0.214949 0.0443443 0.0631189 0.170602 0.119841 -0.102921 -0.248664 -0.151407 -0.204456 -0.034618 -0.143785 0.287462 0.245086 0.0281686 0.585288 -0.0289627 0.226961 0.18723 -0.295345 -0.00768587 0.270064 0.286848 0.329086 -0.299531 -0.338126 -0.230457 -0.00610856 0.253939 0.197251 -0.237991 -0.0510493 0.0813733 0.114317 -0.176377 -0.0923689 -0.069498 -0.0641023 0.177433 0.0556369 0.0467475 0.246538 -0.120113 -0.0749818 0.194519 0.0532002 -0.251858 0.0477243 0.0366615 0.246273 0.0333937 0.313288 -0.292681 0.29213 -0.224794 -0.0589517 -0.162815 0.332176 -0.305661 -0.00370609 -0.45 0.188867 0.20512 -0.218896 -0.0708362 -0.191359 0.269169 -0.0554342 0.099595 0.195645 -0.231345 0.0049655 -0.117237 -0.177857 -0.342741 -0.215565 0.230438 0.253524 0.0594751 0.471309 0.144563 -0.145445 0.0335293 0.00302261 0.269944 0.211677 -0.614066 -0.186359 0.0924086 -0.0407286 -0.171737 -0.157721 -0.186886 0.0146676 -0.216583 -0.312663 0.030353 0.0213295 -0.0954445 -0.661219 0.223512 -0.170923 0.0300947 0.190771 0.208039 -0.244745 0.0522246 -0.0882754 -0.291188 -0.207806 -0.00541849 -0.339229 -0.198004 0.0413077 -0.127868 0.284852 0.181581 -0.279295 0.0719334 -0.113428 0.30272 0.472402 0.0167395 -0.273227 0.244026 -0.129001 0.166958 0.0647664 0.325916 -0.0360832 -0.067488
h -0.0848431 0.017307 0.139856 0.0188464 0.0596625 0.0404492 0.0843878 0.0401977 -0.0985024 -1.09029 0.234606 -0.205409 0.0167189 0.0904394 0.160135 0.0908654 0.25951 -1.13698 0.229183 0.131217 -0.0378102 0.104924 0.165588 -0.0455657 0.0940705 -0.207252 -0.0193487 0.153966 -0.0748572 -0.0971516 -0.134483 0.152309 0.0283294 0.132933 0.115449 0.065234 -0.389216 -0.0325015 0.0687195 0.227219 -0.127155 -0.184226 -0.139525 -0.105099 -0.060117 0.177394 0.326303 -0.220676 -0.147018 -0.212714 0.249592 -0.0187719 -0.20875 0.0991355 0.162795 -0.169179 0.138711 -0.156155 0.115403 -0.0993323 -0.0681188 -0.00867739 -0.197525 -0.195517 -0.247656 -0.223062 -0.175775 0.142835 0.183997 -0.122817 0.0207219 -0.0298245 0.0117663 -0.223258 -0.211239 -0.145259 0.0216693 0.115714 -0.0796018 -0.112318 -0.205016 0.102048 -0.0247308 0.295517 0.0143273 -0.206388 0.345369 -0.0818194 0.0737111 -0.176476 0.0949429 -0.0819706 -0.0724808 0.117291 0.0436067 0.20508 -0.232135 -0.294552 0.0121482 0.117061 0.038599 -0.080102 0.18335 -0.0946851 -0.138236 -0.557917 -0.356254 -0.0717145 0.128939 -0.295788 -0.303856 0.152649 -0.0738029 0.240313 -0.0224459 -0.00522536 -0.0988153 -0.252719 0.170184 0.0594306 -0.118404 0.107689 0.0800964 -0.211241 0.0101998 0.127396 -0.188328 -0.11608 0.123558 0.256397 -0.143804 -0.0750244 -0.0146507 -0.0769556 -0.0144469 -0.276941 -0.0806881 0.198255 -0.127925 0.188163 0.305369 -0.0992978 -0.251211 -0.143815 0.119154 0.271036 -0.105534 -0.048232 -0.15347 0.0174681 -0.166296 -0.35813 -0.0993651 -0.0513359 -0.16963 0.374995 -0.197071 0.143677 -0.19378 -0.0469003 0.0999497 -0.224742 -0.133449 0.33118 0.245467 -0.151692 -0.341649 0.0889677 0.0203779 0.0876033 -0.177387 0.0156631 0.173758 0.265171 0.040758 0.0244446 -0.27798 0.0357489 -0.100153 -0.149604 0.0234321 -0.31643 0.0357498 0.238284 -0.0809626 0.320402 0.0133578 -0.0950565 0.0878523 -0.143599 -0.170329 0.0619175 -0.161156 -0.173654 0.0883531 0.093275 0.306083 -0.200483 0.242546 -0.187939 -0.138844 0.00543927 -0.107999 -0.00637482 -0.131853 -0.20622 -0.0697164 0.140669 0.0710982 0.177878 0.330671 0.413053 0.017722 0.00736801 -0.208601 -0.0547906 -0.0339169 0.0555393 0.424692 -0.100377 -0.0320376 -0.549688 0.208342 -0.143034 -0.263409 0.172606 -0.0399704 -0.161257 0.190202 -0.0256098 0.188929 -0.0356427 -0.0468415 0.0986588 -0.0795492 0.0909881 0.149836 0.0760706 -0.0169741 0.431255 -0.285753 -0.0497785 0.0478033 0.17501 0.167629 0.344791 -0.0649688 0.260288 0.343633 -0.282162 -0.0556395 -0.122838 0.0239263 0.134653 0.0647078 -0.11698 0.25931 0.245937 -0.147456 -0.035989 -0.0453901 -0.235197 0.123949 0.0248241 0.0915013 0.380343 -0.0884197 0.0185254 -0.304244 0.133838 -0.268333 -0.0335776 0.136866 -0.0190716 0.110309 0.0401033 0.104143 0.374047 0.387326 0.138867 0.0266917 -0.177873 -0.33706 -0.150794 -0.0277758 0.109722 0.146453 -0.00955451 -0.187048 -0.134294 -0.0335818 -0.00239388 0.214578 -0.0879511 0.135675 -0.0305191 0.00359222 0.424549 -0.114267 -0.0743754
n 0.0151815 0.0483659 -0.138481 -0.0753636 0.0565072 0.163635 0.222649 -0.0469237 0.0376517 -1.03301 0.0225366 0.225043 0.0664957 0.186122 0.0366647 -0.0598521 -0.0152589 -1.00166 0.259796 -0.271837 0.262103 0.131796 0.122264 -0.193432 -0.184111 -0.104939 -0.0797419 -0.119988 0.163686 0.0923724 -0.278738 -0.110166 -0.14284 -0.179448 -0.360616 0.118945 0.0823934 0.122393 0.129552 0.112912 0.0933561 -0.105965 -0.0331057 -0.0502812 0.10615 0.339813 0.24127 -0.101565 0.161795 0.227606 0.15105 0.0731253 -0.0607584 0.198081 0.106101 -0.217589 0.10884 0.147353 0.213218 0.0400159 0.216075 0.0542238 0.149623 -0.269594 -0.00485115 -0.10217 -0.0476241 -0.217902 -0.00168905 -0.275255 0.0630121 -0.158965 0.00631655 0.0134654 -0.13033 -0.084681 -0.216899 0.192594 -0.377822 -0.29918 0.117446 -0.0523203 0.272982 0.0710556 -0.0861953 0.0772521 0.443277 0.0111637 -0.127512 -0.0977231 0.16624 -0.109397 0.160236 0.233707 0.265314 0.175721 -0.078719 0.00143141 -0.289924 -0.420832 -0.0665317 0.0296709 -0.066876 -0.0635242 0.0327907 -0.599878 -0.332142 -0.073378 -0.0847884 -0.0679185 -0.167335 0.0951109 -0.124625 -0.0868852 -0.0871559 -0.101515 -0.143184 0.029626 0.178359 -0.114494 -0.104637 0.400449 -0.14338 0.353158 0.173301 0.188243 -0.167862 -0.00382515 0.265922 0.0672235 0.0837809 0.151149 0.0568381 0.0289118 -0.107844 0.104723 0.0298443 -0.0850284 0.176776 0.0359209 0.469197 -0.181219 -0.261985 0.0406622 -0.242765 -0.0270318 -0.0634298 -0.174351 0.0423977 -0.0344896 -0.103935 -0.0445332 0.0658881 0.113887 0.0776206 -0.0992936 0.302106 0.0758066 -0.00673317 -0.10089 -0.148668 0.0990162 0.100107 0.0455705 0.445109 0.109264 0.194585 0.0987889 -0.148373 0.000366131 -0.22827 0.086409 0.0657417 0.0302099 0.062722 -0.0765004 0.196163 -0.254283 -0.0886396 -0.157225 -0.00942247 0.115983 -0.02586 0.0239202 -0.0290573 -0.0143625 -0.0146375 -0.0544542 0.00357788 0.0431906 0.142362 -0.0804474 0.0392158 -0.117968 0.119605 -0.171143 0.125053 -0.0863944 0.00954097 -0.181438 -0.218434 0.0507014 0.155597 -0.203571 -0.114996 -0.0140307 -0.153375 0.0834598 0.0164746 0.249032 0.0397537 0.0850834 0.120827 0.110775 -0.0586917 -0.0502235 -0.0894106 -0.0774012 0.552369 -0.00676277 -0.0628481 0.212075 -0.0613549 -0.30562 -0.196816 -0.187641 -0.29222 -0.218543 0.030693 -0.310731 0.0755936 0.00228393 -0.0220103 0.185985 0.0262669 0.0890189 0.0264089 0.140813 0.25897 0.0342796 -0.119184 0.161645 -0.141053 0.226797 0.16224 -0.162568 -0.0495968 -0.102722 0.0139138 -0.00730461 0.233659 0.024553 -0.0389955 0.107921 -0.0120758 -0.270433 -0.089802 0.0318451 -0.0631463 -0.338395 0.0360354 0.05982 -0.0332691 -0.187931 -0.0398246 0.224166 -0.271704 -0.0407259 -0.353936 -0.127713 0.0522734 0.16672 0.125255 0.126964 0.13096 0.154792 0.0111797 -0.03354 0.285706 -0.0952897 0.0111545 0.240385 -0.162061 0.0705348 0.115641 -0.23839 -0.178573 0.0536802 -0.250732 0.0289574 0.15804 0.321928 0.125288 0.133586 0.249798 0.110068 -0.0229672 0.0018645 0.0176145 -0.116908
5 0.096073 -0.209159 0.184365 -0.0271788 -0.575231 0.116208 -0.0382779 -0.0111939 0.00153885 -1.38772 0.554324 0.302016 0.0230305 0.0379352 0.0326844 0.00298518 0.148446 -1.00537 0.210975 0.0986403 0.0529478 0.323137 0.488032 -0.00438212 -0.13769 0.185632 0.236907 -0.0820651 -0.138595 0.236787 0.0540997 -0.0240144 -0.0359144 0.0509453 -0.379813 -0.0396216 -0.256479 -0.00157765 0.0929341 0.616772 -0.163006 -0.444751 -0.178054 0.399426 0.129768 0.138526 0.0643715 0.0551663 -0.0228704 0.234237 -0.0360077 0.544107 -0.128419 0.113509 0.0543629 0.0142946 0.15383 0.221962 0.0717375 0.439828 0.0991147 -0.227988 -0.140493 -0.552035 -0.250865 0.067861 0.229929 -0.179198 -0.119276 -0.185986 -0.074021 -0.321222 -0.304223 0.174777 0.26438 -0.00652715 0.110969 0.482563 0.153553 -0.0772989 -0.140464 -0.0516674 0.157326 -0.245416 0.0464861 0.454133 0.784652 0.0613996 -0.447309 -0.0797557 0.147918 -0.279844 0.0625018 0.267518 0.148262 0.243216 -0.268153 -0.12344 -0.301735 0.0392874 0.0954525 -0.00957057 0.101402 0.269809 -0.206664 -0.429532 -0.0877914 -0.247231 -0.0719431 0.207698 -0.0130924 0.322949 -0.203352 0.268446 -0.0667399 0.250225 -0.14884 -0.242032 0.0344276 -0.249127 -0.223497 -0.0465218 -0.0477758 0.00767138 0.0489642 -0.263105 0.0301501 0.109519 0.00886893 -0.150522 0.225382 0.0895178 0.0686494 -0.19383 -0.337226 0.158182 0.0604101 0.189369 -0.0793131 -0.0389438 0.944034 0.0929122 -0.309639 0.0369845 0.0190782 0.0748419 -0.0890068 -0.0339159 -0.0456381 0.171944 -0.118133 -0.267163 -0.0870046 -0.0525254 0.200771 0.205834 0.19986 -0.123548 -0.182299 0.322268 -0.0638937 -0.160589 0.214269 0.212762 0.0654059 0.429429 -0.0493617 0.0614611 -0.517083 -0.102517 0.142466 -0.079041 0.135661 0.0251298 0.0827726 -0.124788 -0.268619 -0.238561 -0.373534 0.0267143 -0.126316 0.343623 0.244365 0.143398 0.221124 0.0104851 0.218604 0.0470311 -0.228035 -0.00397481 0.39111 0.298646 0.137496 -0.383506 -0.110631 -0.438412 -0.200112 0.220778 0.182363 -0.256828 -0.11019 0.0366495 0.0927375 -0.413713 -0.140943 -0.102997 -0.10172 0.193789 0.0166692 0.0674629 0.367148 -0.0245732 0.0788771 0.348381 0.197559 -0.088223 0.0248095 0.000755111 0.293463 0.0400834 0.436418 -0.234741 0.130391 -0.335653 -0.126323 -0.206243 0.290136 -0.150202 -0.0177373 -0.46925 0.129432 0.0505542 -0.321789 -0.00873341 -0.179817 0.177945 -0.131058 0.117 0.183965 -0.328419 0.148275 -0.155324 -0.324823 -0.403953 -0.12886 0.00502855 0.256445 0.1242 0.485061 0.210127 -0.189126 0.0608357 0.169796 0.178976 0.0889345 -0.565015 -0.159611 0.263117 -0.045925 -0.128314 -0.00809183 -0.206352 -0.189187 -0.133295 -0.417047 0.0359674 -0.0187936 -0.0225856 -0.667773 0.234025 -0.140296 0.0345342 0.0242905 0.400079 -0.251397 -0.131055 -0.074044 -0.172732 -0.360416 -0.119107 -0.51445 -0.0188396 -0.0593501 0.0534288 0.334203 0.252043 -0.268398 0.139802 -0.0418222 0.482368 0.534383 0.0128759 -0.25606 0.250119 -0.256017 -0.133353 0.120015 0.332893 0.00297953 -0.139145
a 0.0968016 -0.151204 0.0819124 -0.0703031 0.113455 0.179084 -0.110765 0.0640772 0.171412 -0.739692 0.271158 0.00615474 0.128784 0.105804 -0.026946 -0.13067 0.0700235 -1.00797 0.154924 -0.107748 0.155283 -0.000701621 0.00462691 0.295142 -0.0426516 0.0841252 0.00336795 0.10791 -0.171097 -0.194628 0.0259323 -0.327177 -0.0279416 -0.127447 -0.196624 0.141496 -0.144257 -0.155584 -0.171702 -0.284129 -0.0818407 -0.201691 0.0239378 -0.114858 0.197516 -0.0473003 0.117313 -0.110934 -0.109208 -0.15303 0.0539729 -0.0861639 0.272664 0.0938806 0.047191 -0.0773582 0.00214186 -0.0739607 -0.16963 0.0665375 -0.342908 -0.0691494 -0.0164903 -0.0520614 -0.114255 0.00472572 0.0834957 0.0747043 0.104468 0.0832857 -0.138 -0.234058 -0.100199 -0.0548835 0.0574797 -0.0915281 -0.00393293 0.049065 0.0256538 -0.0727127 0.0285334 -0.199789 0.294348 -0.0789746 -0.171721 0.1872 0.358787 0.0668312 -0.336724 0.00887269 0.0977702 -0.355407 0.0301976 -0.199379 0.158473 0.291798 0.184818 0.0676635 -0.180082 0.251192 0.0442621 0.0767589 0.148056 0.162499 0.00659727 -0.316982 -0.156955 0.105465 -0.0767192 -0.128787 0.0503167 0.0557346 -0.273983 0.147576 -0.337477 -0.212813 -0.161895 0.0371174 -0.235417 -0.261562 -0.188412 0.0367263 0.0389536 0.0189699 0.0638149 -0.0514915 0.301908 -0.00367426 0.0576616 0.0539705 -0.0460542 -0.0608537 0.237989 0.207466 0.10371 -0.0112226 0.233193 -0.174358 -0.104341 0.0181121 0.301569 0.0364179 -0.148882 -0.155017 -0.132058 -0.0950729 0.346276 0.113483 -0.00321592 -0.0726117 0.153449 -0.0654979 -0.0848515 -0.0997406 0.174691 -0.0487722 0.0259372 -0.193734 -0.176736 0.111896 -0.0965379 0.249559 0.332172 -0.0825415 0.158189 0.0214413 -0.0302123 0.213129 -0.242944 0.0663961 0.0241358 -0.104222 -0.190232 0.057716 -0.165572 -0.264914 0.0826661 -0.242315 -0.351937 -0.0709774 -0.0163956 0.168479 0.16764 0.125253 0.144152 -0.135663 0.276016 -0.0293571 0.0121798 -0.0495785 0.0197442 -0.0401704 -0.115326 0.059325 0.00708277 -0.0983526 -0.0758271 0.346377 0.00919821 0.208846 -0.127946 0.279955 0.359706 -0.0386792 -0.123281 0.293353 -0.199343 0.273941 0.164213 -0.104692 -0.0951873 -0.114918 -0.238557 0.0951619 0.0226951 -0.0282225 0.132865 -0.089885 0.319857 0.093498 -0.161127 0.116471 0.298091 -0.141754 0.01539 0.0330621 0.0238969 0.0800516 0.132636 -0.176242 0.0135726 -0.0888484 -0.105794 -0.167334 -0.201623 -0.117417 -0.0398643 -0.00478115 0.164412 -0.168729 0.0364116 0.430472 0.038768 -0.116347 -0.0676469 0.00711835 0.0851005 0.0915633 0.193887 -0.00275599 -0.062283 0.0700051 0.108994 -0.16142 0.198897 -0.181954 0.0421194 0.203625 0.175535 -0.00288882 0.0788713 0.0473378 -0.206344 -0.0634383 -0.179201 0.190922 0.10577 -0.244352 -0.267158 0.244485 0.182444 0.0352685 -0.0958183 0.0293978 0.0734738 -0.205609 0.0601952 -0.135166 0.0763045 -0.128762 0.00181944 -0.0961571 -0.179562 -0.0444044 -0.0999795 0.200854 -0.0675235 0.104794 -0.0135435 -0.18353 -0.0356652 0.0954411 -0.246268 0.015349 0.0914852 -0.0186342 0.185964 0.0898586 -0.139432 -0.239398
2 0.316928 -0.225801 0.249785 -0.169057 -0.545713 0.343266 0.12135 -0.124149 -0.109384 -1.45051 0.648346 -0.0825806 -0.0878014 0.0708977 -0.0679805 -0.335354 0.113018 -0.834668 0.415898 0.278261 -0.140722 0.141553 0.350653 0.3074 -0.128021 0.497969 0.180639 -0.136072 -0.119653 0.310665 0.162406 -0.0473834 -0.0784497 0.0505816 -0.346388 0.133594 -0.0210138 0.211787 -0.0512444 0.427253 -0.13317 -0.297566 -0.3025 0.278894 -0.0899766 -0.00536563 0.0673592 0.188172 -0.0972644 0.230825 -0.114429 0.256723 -0.12211 -0.124006 0.00133688 0.0813801 -0.000137514 0.228912 -0.00952879 0.440226 -0.0755369 -0.13097 -0.0622626 -0.45162 -0.478253 0.367189 0.31556 -0.139002 -0.121041 -0.318974 -0.0724744 -0.218994 -0.354226 0.0726749 0.0758245 -0.01766 0.0414979 0.29411 -0.156918 -0.367575 -0.111594 0.141626 0.14005 -0.0964818 -0.0898176 0.443996 0.779562 0.162235 -0.254665 -0.083562 0.291834 -0.257291 0.201069 0.170784 -0.153808 0.127059 -0.0681206 0.12423 -0.0268336 0.00675263 0.0161518 -0.237598 0.194797 0.080075 -0.0507263 -0.0772465 -0.167913 -0.13458 -0.144143 0.146522 -0.0220229 0.107423 -0.203997 0.102881 -0.0206925 -0.0113068 -0.0784931 -0.191728 0.090336 -0.494311 -0.144631 -0.0503101 0.275443 0.0155133 -0.00552404 -0.0907466 -0.0707685 0.282099 -0.0272048 0.056742 0.175746 -0.0962979 0.105955 0.0152969 -0.570118 -0.0750167 0.0380829 0.337356 -0.137657 -0.0815156 0.857408 0.198069 0.0293544 0.190891 -0.0306345 0.174914 0.0484995 -0.218268 0.00224777 0.151214 -0.00159236 -0.184628 0.0469241 -0.139154 -0.0801374 0.0491038 0.467417 -0.106737 -0.214717 0.481951 -0.131355 0.0178492 0.147803 0.00968507 0.102564 0.362986 -0.334573 0.0957731 -0.350226 0.0226928 0.195599 -0.0509939 -0.0861978 0.167365 0.115396 -0.157056 -0.0169072 -0.224667 -0.286903 0.139933 -0.00584718 0.301375 0.293168 0.148598 0.01685 -0.186669 0.194745 0.16464 -0.153938 -0.0924984 0.345656 0.358496 0.268508 -0.145007 -0.370049 -0.22816 -0.19564 0.464581 0.181886 -0.139061 -0.118501 0.213904 0.227568 -0.222213 0.0327109 -0.123473 -0.223272 0.109297 0.0108585 -0.135917 0.272292 -0.284918 -0.026585 0.262786 -0.00185675 -0.31288 0.00928368 0.0109972 0.136984 0.140884 0.282675 -0.0376908 0.007128 -0.17752 0.0789062 0.212123 0.188305 -0.308547 -0.000306537 -0.345465 0.328109 0.0895511 -0.233788 -0.191825 -0.065451 0.1565 0.0310636 -0.0848956 0.249749 -0.420254 0.0411297 -0.0198522 -0.199356 -0.339796 -0.226177 0.209798 0.0592898 0.183144 0.403513 0.158835 -0.146175 0.0980019 0.169001 0.256712 -0.0861228 -0.467754 -0.306399 0.0997773 0.0414128 -0.162115 -0.1964 -0.266127 -0.0107207 -0.112276 -0.319208 -0.0261123 0.17332 -0.089331 -0.485037 0.301075 -0.157488 -0.0327529 0.14809 0.108641 -0.181497 -0.0366842 -0.156408 -0.239581 -0.508627 -0.222807 -0.41631 -0.137726 0.167308 -0.124362 0.168366 0.115065 -0.2583 0.102354 -0.150729 0.317311 0.619907 -0.119145 -0.216028 -0.0141941 -0.389995 0.0334614 0.158337 0.112072 -0.178703 -0.141126
9 -0.076575 -0.241074 0.1439 -0.112554 -0.328929 0.0830264 -0.00475977 -0.210869 0.200832 -1.57204 0.230196 -0.0276954 -0.323523 0.0773498 0.211098 -0.0512249 0.254032 -1.14674 0.0860979 0.0462215 0.000629282 0.173704 0.413858 0.0171546 -0.0495317 -0.150113 0.0237556 -0.0381558 -0.191445 0.240885 0.150228 -0.303287 0.198478 0.0398769 -0.227604 0.065213 -0.165836 0.134122 0.215512 0.39909 0.0140932 -0.488663 0.109872 0.149268 0.139506 0.00741136 0.34581 -0.127997 -0.0224335 0.0526708 0.0465844 0.409615 0.102919 -0.106304 -0.0868533 0.00375666 0.102458 0.229891 0.170213 0.21917 -0.0741464 -0.086651 -0.195715 -0.295519 -0.249955 0.24866 0.00871004 -0.114636 -0.0432845 -0.30713 -0.0760572 -0.463566 -0.0740081 0.00157058 0.237013 0.0685943 -0.0675752 0.217488 0.078794 -0.117541 -0.0985574 0.0744637 0.142476 -0.0102725 -0.112681 0.343239 0.810066 -0.11576 -0.251057 0.0360606 0.157851 -0.0491822 0.0368113 0.229316 -0.0383954 0.435132 -0.222342 0.0483752 0.0930994 0.128577 -0.0111807 0.0179834 0.510631 0.20265 0.0700434 -0.233812 0.1195 -0.270112 -0.109487 0.117094 0.324672 -0.0280854 -0.112999 0.000117862 -0.0598149 0.294845 -0.250658 -0.192032 -0.0752171 -0.0010864 0.0266026 0.196849 -0.159741 0.188729 -0.0501235 -0.181099 -0.0856685 0.0731142 0.312024 0.0163062 0.00677007 -0.0317673 0.165764 -0.161035 -0.148008 -0.0503007 -0.0663002 -0.0358235 -0.271843 0.104376 0.955674 0.0619661 -0.263614 0.0941814 0.15898 0.307189 -0.0106533 -0.124563 -0.00846349 0.093751 -0.0811593 -0.173132 0.010726 -0.333273 -0.0494327 0.436531 0.328781 -0.00635999 0.262577 0.0156008 0.184514 -0.0991468 -0.148985 0.104359 0.0782479 0.354438 -0.239263 0.129068 -0.17564 -0.0712439 0.0595094 -0.0271713 -0.0671765 0.0939483 -0.0113348 0.00638949 -0.153001 -0.0763338 -0.259573 0.130363 0.0872194 -0.0275976 0.274485 0.0253604 0.379503 0.132892 0.0822964 0.040052 -0.105564 -0.00828816 0.232026 -0.1359 0.224994 -0.364863 0.102262 -0.30207 -0.0585008 0.130192 0.201811 -0.429077 0.147052 0.0516914 0.00264233 -0.0565127 -0.308647 -0.149412 -0.135082 0.0883369 -0.0405834 0.1853 0.311163 0.0671898 0.204656 0.184323 0.0752461 -0.28558 0.0993913 -0.182148 0.21084 0.0112979 0.0984471 -0.281262 0.0172888 -0.377307 -0.355529 -0.447024 0.129964 -0.361589 0.311294 -0.347017 -0.0327996 -0.0802336 -0.146498 -0.21084 0.111011 0.0378401 -0.328565 -0.177554 0.0469703 -0.0585975 -0.129671 -0.199028 -0.054016 -0.163728 -0.108425 0.0869217 0.161051 -0.115931 0.165086 0.0214807 -0.0702756 -0.0134757 0.0412082 0.00664304 -0.00238495 -0.357005 -0.319241 0.0855949 0.207298 -0.492712 0.000497293 -0.221331 0.159468 -0.120741 -0.285321 0.0531934 0.174605 -0.0354639 -0.560105 0.137571 -0.258824 -0.0661628 0.216679 0.55964 -0.300801 0.114647 -0.0501283 -0.195081 -0.28866 -0.339485 -0.400406 -0.193482 -0.0643836 0.030567 0.486914 0.00774651 -0.254401 0.212973 -0.0523726 0.298429 0.480467 0.109502 -0.294055 0.238499 -0.196232 0.00196557 -0.108396 0.182202 -0.0662284 -0.0631712
k 0.289377 -0.517871 -0.174365 0.127545 0.103179 0.140159 -0.189198 -0.253185 -0.0826515 -1.32774 0.482482 -0.0954891 0.0863071 -0.0668632 0.102074 0.22531 0.212573 -0.949105 0.447875 0.395575 0.366633 -0.135834 0.0357092 0.0886891 -0.202438 -0.0513864 0.223947 -0.203297 0.0305087 -0.136357 0.393924 -0.235977 -0.171203 -0.114253 -0.144131 -0.126602 -0.0528412 0.0764842 0.0560393 -0.0374044 -0.284721 -0.0507188 -0.311348 -0.0909893 -0.485777 0.0833116 -0.139374 -0.0627851 -0.253741 -0.272004 0.191085 -0.0113018 0.0673804 0.102816 0.0694378 -0.0104493 0.266946 0.538839 -0.173028 0.0294122 -0.0473675 -0.0581993 -0.154442 -0.519221 -0.0827963 0.0263403 -0.0108312 -0.0256126 -0.166985 -0.191315 0.16568 0.220705 0.0299743 -0.0909104 -0.312917 -0.228686 -0.268553 0.0508023 -0.256179 0.0407216 -0.302229 -0.54495 -0.151252 0.297556 0.0216572 0.348645 0.399197 0.451566 -0.638414 0.15427 0.20078 0.0447652 0.267706 0.040602 -0.224814 0.321081 -0.0189861 -0.165056 -0.297137 -0.0699196 0.110031 -0.00965236 0.00415256 -0.0977562 -0.142363 -0.53235 0.12982 0.0540125 0.118279 -0.0667682 0.248355 -0.116027 -0.126111 0.0880757 -0.116474 -0.130644 0.177001 -0.0279841 0.070027 -0.164115 -0.073577 0.195954 0.271224 -0.159312 -0.187022 0.0815567 -0.261659 0.0828087 -0.157376 -0.103094 0.0158208 0.123261 -0.226402 -0.0860029 -0.289104 -0.356214 -0.0168157 0.0293835 0.0528475 -0.0111149 0.494946 -0.0107273 -0.329025 -0.0681437 0.00208347 0.0226299 0.239043 0.168943 0.0459619 0.0207452 -0.240326 0.121487 0.201377 0.202588 0.0201134 0.212146 0.0448974 -0.0427373 0.26661 0.0512843 0.154791 -0.0847162 -0.0745457 0.176141 0.469414 0.0279819 -0.114994 0.331019 -0.610812 -0.00484831 -0.332898 -0.0498988 0.266044 -0.295654 0.314247 -0.174433 -0.0743196 0.228947 -0.386802 0.0784497 -0.0211612 0.151591 -0.0195967 0.271086 0.0279752 0.0408708 0.196052 -0.427756 -0.168041 0.132972 0.109895 -0.00054948 0.253515 -0.381361 -0.189649 -0.392735 0.0856235 -0.296859 0.292447 -0.0895347 -0.113101 -0.0967494 -0.0837976 -0.190198 -0.21853 -0.156257 -0.274582 0.0248947 0.151283 0.0161552 0.275507 0.237866 -0.199174 0.087382 0.133957 -0.0630545 0.386881 0.0288627 0.346906 0.332591 0.0583229 0.119762 -0.0763489 -0.145109 0.0634327 0.134142 -0.0432365 -0.125652 -0.195322 0.027008 0.169611 -0.38771 -0.332054 -0.010102 0.306353 0.0941691 0.177962 -0.064156 0.050939 -0.197735 0.140778 0.0581387 -0.0931451 0.141185 -0.349552 0.178407 0.00551133 -0.171565 0.500707 -0.195643 0.139783 -0.16086 0.137692 -0.0397578 0.0182767 -0.798345 -0.0393877 0.121966 -0.400157 -0.160868 -0.172137 -0.270498 0.0605453 -0.0880952 0.110121 0.435787 -0.062729 -0.00116546 -0.644868 -0.0330695 -0.0233315 0.106014 0.183733 0.0637233 -0.0822795 0.140077 0.0536321 0.00784264 0.0532751 -0.343542 -0.312205 -0.18794 -0.368751 -0.0418282 0.0609516 0.29384 -0.0753747 -0.0956153 -0.514641 0.0161343 0.0804186 -0.197737 -0.00631598 0.0758965 0.15471 -0.152487 0.160283 0.168188 0.00371035 -0.377621
w 0.080462 -0.27895 0.0540439 0.16825 -0.00467234 0.329568 -0.334676 0.141931 -0.0376278 -1.15158 0.351833 0.158013 -0.224549 -0.212966 -0.065163 0.388275 0.0641221 -1.0257 0.378002 0.332516 -0.0793868 0.151713 0.0722797 0.141198 -0.0120409 -0.175442 0.355352 -0.0814845 0.0560412 0.252353 0.17477 0.0839922 -0.369649 -0.0660003 0.138335 0.457176 0.0383137 0.186554 -0.0397989 0.259961 -0.199511 -0.386079 -0.323403 -0.341352 -0.251878 -0.0820714 -0.215542 -0.242044 0.0298891 -0.408106 0.0914545 -0.108216 -0.0352354 -0.147464 0.229985 -0.29873 -0.141143 -0.00857065 -0.0127224 0.0127167 0.0190959 0.183047 0.21058 -0.274666 -0.216646 0.149038 -0.131566 -0.230056 -0.253619 -0.0740131 0.48404 -0.0489327 0.0282178 0.136983 -0.421658 -0.0563245 0.0717079 0.142186 0.424685 0.125516 0.159703 -0.15536 0.0137287 -0.481032 -0.160039 0.0200449 0.144657 0.0236088 -0.195285 -0.237591 -0.406834 -0.39062 0.00818486 0.483773 -0.185161 0.422347 0.235952 0.194638 -0.463959 0.00355097 -0.364165 -0.0120644 0.00726419 -0.0266209 -0.0421238 -0.667453 -0.0326631 -0.0911894 0.0285282 0.144872 0.254112 0.131786 -0.0069265 0.279637 0.271879 0.19703 0.272929 -0.256185 0.0813347 -0.205874 -0.101426 0.09858 -0.792751 0.123377 0.330976 0.472596 -0.114672 -0.281835 0.433456 0.040491 -0.170504 -0.143683 0.0345587 -0.0564094 -0.465801 -0.380846 0.0233508 0.248865 -0.253039 -0.0854827 0.45343 -0.13529 -0.322548 0.043437 0.212573 0.18411 0.00915548 -0.138555 0.00798763 0.249048 -0.210736 -0.161724 0.0110964 0.271589 0.209874 0.232086 -0.141307 0.0932497 0.0653888 -0.105908 0.336344 0.0557949 -0.146461 0.570249 0.0425334 0.269043 -0.0326435 0.126546 -0.251663 -0.157405 -0.0480258 0.133485 0.349035 0.0583535 0.245651 0.229401 -0.094013 0.0845842 -0.0598052 0.0915827 0.544094 -0.195954 0.0275714 0.0512827 0.276577 0.0359066 0.260201 0.165776 -0.0577644 -0.195566 0.448359 0.0475095 -0.141685 -0.14414 0.0744765 0.00742196 0.563149 -0.010441 0.524941 -0.397889 0.155172 0.153962 -0.016299 -0.0419035 -0.155229 0.190934 -0.073668 -0.362059 0.0506704 0.213541 0.0245081 0.0195633 -0.350161 0.134588 -0.20949 -0.289873 0.0776259 -0.0297693 0.522498 -0.00711947 0.303874 -0.194156 0.624839 -0.105166 0.0978151 -0.41697 -0.546274 -0.309738 -0.696781 -0.0441633 0.388152 0.0793086 0.276932 0.257909 -0.00547571 -0.0516638 -0.146795 -0.00140719 -0.00642293 -0.281703 -0.0631174 -0.00921594 -0.0904589 0.00450081 -0.0197805 0.0845185 0.13872 -0.14846 0.233767 0.152852 0.114338 -0.041954 0.14183 0.317408 -0.0526166 -0.540794 0.198553 0.185326 -0.446657 -0.343905 -0.304159 -0.457655 0.282179 -0.313206 -0.0219551 0.261842 0.0777195 0.518244 -0.432062 0.48882 -0.213237 0.258039 0.374257 0.0020955 -0.0535176 0.637484 -0.0227007 -0.288724 0.131724 -0.019195 -0.336784 -0.0147015 -0.313986 0.0412132 0.0163124 -0.094883 -0.406405 0.238946 -0.0636179 -0.0486814 0.400838 -0.320107 0.0577636 0.416607 -0.0225134 0.168611 -0.114196 0.285438 0.680982 0.0578169
p 0.161086 -0.32439 0.256632 -0.0275944 -0.222434 0.202565 -0.144209 -0.0317055 -0.174727 -1.04458 0.453205 -0.261117 0.0233478 0.343567 0.272911 0.126828 0.304376 -0.763703 0.112175 -0.210522 0.338013 -0.0466085 -0.220449 0.132058 -0.0168487 -0.0850065 0.00972218 -0.179177 -0.0956226 0.164499 0.526292 -0.205303 0.161812 0.0211747 -0.350477 0.168875 0.105836 -0.0558822 0.511873 0.217268 -0.20769 -0.0678301 -0.120777 0.232188 0.0112962 0.283747 0.154149 0.188766 -0.32754 0.0463804 -0.142301 -0.12659 0.0717597 0.0245655 -0.190866 0.00514737 0.211954 0.170674 -0.210899 0.210603 -0.0451233 0.163604 0.234459 -0.280879 0.0916429 -0.0456985 0.0339045 -0.0475827 -0.184093 -0.412748 0.445489 0.0304286 -0.181852 0.193042 -0.0571426 0.101739 -0.24485 0.20055 -0.127731 -0.337441 -0.10385 -0.0962272 0.033809 0.0507984 0.113622 0.33734 0.70109 0.108177 -0.145459 -0.48909 -0.323606 -0.187774 0.147087 0.157499 -0.137139 0.200527 0.0244282 -0.521915 0.348312 -0.0865208 -0.278489 -0.190092 -0.231335 0.0879388 0.130265 -0.869617 -0.319827 -0.187675 0.0211636 -0.0550276 -0.234428 0.102761 0.0410498 -0.235991 0.108213 0.162662 0.0343488 -0.182294 -0.367921 -0.190793 -0.0457245 -0.101512 -0.0722471 0.417237 -0.453393 -0.211127 -0.12011 -0.120493 -0.105074 -0.315228 0.0314194 0.256103 -0.281246 0.202568 0.1935 -0.303444 0.0301943 -0.401466 0.309596 -0.0049639 0.620646 0.0380567 0.0718032 -0.0644182 0.0465387 0.0666126 0.244241 -0.210471 -0.164182 0.352886 0.131878 0.003385 0.0437063 -0.0184254 -0.0840431 -0.00508437 0.384191 -0.0676346 0.00465801 0.29558 -0.273258 0.161645 -0.107587 0.0185842 0.0166559 0.059882 -0.180951 -0.099081 -0.263875 -0.324789 0.0568413 0.234324 -0.0027874 -0.114843 0.0572165 0.277756 -0.36876 -0.243383 -0.422622 0.202223 -0.0455862 -0.0495556 0.370074 0.297193 -0.0561772 -0.22536 -0.0415166 -0.0900827 -0.130012 -0.287281 0.0251561 -0.130903 0.204778 -0.0474854 0.206205 -0.180628 0.196789 0.216443 0.415416 -0.261031 0.231583 -0.0840983 0.119564 -0.194351 0.0291381 -0.181223 -0.0852395 -0.0215769 -0.184039 0.303792 0.0211285 0.10377 -0.351092 0.0589467 -0.252904 0.0521236 0.33962 -0.13341 0.338332 -0.0363905 0.180329 -0.247191 0.0283609 -0.12171 0.108033 -0.0843225 -0.192496 -0.467314 -0.149012 0.000406632 0.21678 -0.113421 0.161558 0.0388231 0.0451533 -0.428846 0.298672 0.29143 0.326437 -0.00865889 0.179477 -0.101579 -0.445911 0.169922 0.122547 0.226514 0.159174 0.0306061 0.0333822 -0.108875 -0.147476 -0.140602 0.0521892 -0.0759853 0.107433 -0.472515 -0.335658 -0.0806529 -0.0650079 0.0198872 -0.153851 -0.193993 -0.146261 0.0431709 0.0226775 0.202039 -0.0672934 0.143285 -0.257991 0.349437 0.0252787 -0.030205 0.279029 0.104711 0.141454 0.306391 0.133768 0.0524793 0.0215297 -0.190163 -0.442878 -0.140344 -0.0926523 -0.161006 0.310251 -0.219189 -0.0242602 0.0193088 -0.0110443 0.168121 0.189733 -0.126661 -0.149596 -0.12205 -0.348261 -0.0161885 -0.100231 -0.0366994 -0.258543 -0.0636763
t 0.371346 -0.103226 0.232212 -0.0876515 -0.256642 -0.0124181 0.0607757 -0.0807896 0.0175018 -0.946996 0.107114 -0.115448 0.0912689 0.0292622 0.155165 0.15234 0.134495 -0.753712 0.208902 0.129256 0.0220287 -0.133145 0.162998 -0.220653 0.121214 0.0244472 0.168205 0.18785 -0.100112 0.0525113 0.212691 -0.17472 0.064214 0.218132 0.110853 -0.0677697 -0.112199 -0.402226 -0.0956081 0.180266 0.00646155 -0.045723 -0.142991 0.00346685 -0.0417725 -0.129964 0.0604816 0.143584 -0.351712 -0.0900931 0.128446 0.154944 0.0033323 0.0707641 -0.212385 0.136562 -0.00304751 0.0355899 -0.0304052 0.0866553 -0.111586 0.157117 -0.0151396 -0.157438 -0.106557 0.00965053 -0.067761 -0.134988 -0.179333 -0.155054 -0.104947 -0.0807993 0.0939307 0.113028 0.0135971 -0.104402 -0.332472 0.000177515 0.230369 0.125695 0.0444171 0.0512982 -0.169677 0.222515 -0.111934 -0.0158929 0.0908804 0.0169782 -0.288553 -0.0405463 -0.108021 0.0334291 0.08258 0.0143166 0.10689 0.478307 -0.0173875 0.0279561 -0.20111 0.0242678 -0.143476 0.120378 0.0233679 0.173958 -0.0623414 -0.553148 0.124933 -0.0107748 -0.287042 -0.170538 -0.136179 0.00930535 -0.268229 -0.0140774 -0.0712901 0.248591 0.106252 0.155371 -0.113201 0.046699 -0.17982 -0.0363224 -0.0310511 0.0199854 -0.13722 -0.196931 0.112387 -0.172606 -0.0699794 0.128997 0.0836481 0.176312 -0.26481 0.000827015 -0.049649 0.112418 -0.172702 -0.01778 -0.160398 -0.090897 0.419452 -0.112258 -0.301313 0.00543025 0.0832263 0.0886933 -0.0256356 -0.21892 -0.118074 0.0905871 -0.064379 0.0831377 0.0673353 0.244735 0.266368 0.0387791 0.119183 0.213734 0.114777 0.248108 -0.0710963 -0.0994179 0.183567 0.089455 0.102294 0.0210803 0.255715 -0.0150196 -0.207495 -0.111849 0.126137 0.314659 0.136931 0.145994 0.0598356 0.123366 -0.120687 0.0547955 -0.0204128 0.107659 -0.195058 0.278394 -0.193677 0.0324595 -0.068083 0.109274 -0.0446047 0.0271591 0.0544978 -0.0100887 -0.0198357 -0.0722017 0.0563035 -0.104188 0.1564 -0.0403683 -0.173281 0.0720393 0.0910376 -0.116462 -0.0615728 0.0960388 0.0362686 -0.0297757 0.032091 0.0386398 -0.184755 0.0951986 0.033517 0.0781648 -0.0435409 0.0952146 0.121501 0.0730625 -0.174707 -0.0400291 0.126126 -0.0854062 0.421031 -0.0017285 0.0559289 0.0914618 0.0342891 -0.00538794 -0.219382 -0.320026 0.000887632 -0.190832 -0.243234 -0.442758 0.103902 0.120155 -0.0174301 -0.0784156 0.139554 -0.194572 -0.209196 0.16037 -0.0653825 -0.138704 0.27984 -0.186614 -0.101229 -0.0116739 -0.174534 0.0208784 0.0919261 0.117245 0.241915 -0.0430879 -0.0941695 -0.137126 0.058932 0.0315356 -0.139057 -0.316495 0.20312 0.068536 -0.145713 -0.0810708 -0.168064 -0.221427 -0.114514 -0.0640974 -0.0750591 0.0893942 -0.195391 0.0235889 -0.134187 0.0594641 -0.171925 0.067364 0.171824 0.0983581 0.00822147 0.107887 -0.311072 0.135868 -0.0593621 -0.275467 -0.165819 0.0528736 -0.0513502 -0.125467 -0.208258 0.231815 0.00191342 0.2174 -0.0621986 0.0586268 0.12034 -0.282725 -0.0156627 -0.108243 0.18173 -0.120737 -0.0608847 -0.00639123 0.0386294 -0.125045
f 0.0812605 -0.0895577 0.0787053 0.0182994 -0.0453066 -0.0254087 -0.241826 -0.0101766 -0.235547 -1.14155 0.235332 0.150472 -0.13347 0.315518 0.0854779 0.343182 0.426311 -0.840785 0.00567271 -0.117993 -0.125278 -0.0642011 0.07367 -0.248408 -0.425316 -0.0302706 0.219307 -0.10093 -0.203569 -0.227263 0.229972 0.16685 0.0224598 0.246567 -0.0480941 -0.0270301 -0.283789 -0.213076 0.239841 0.0568634 -0.109172 -0.175569 -0.132695 0.168387 0.101497 -0.0857132 -0.0413319 -0.113919 -0.21637 0.165101 -0.101364 -0.154337 -0.0722483 0.168609 0.063932 -0.162916 -0.0823141 -0.0691899 -0.105975 0.0147433 0.130989 -0.183557 0.00919106 -0.253873 0.0789511 0.0241378 0.232143 -0.0636764 0.0985822 0.0565736 0.379685 0.251568 -0.284555 0.042343 -0.0825652 -0.131256 0.0449566 0.283961 0.276755 0.289637 -0.419228 0.129044 0.202659 -0.281288 0.0104182 0.324764 0.561219 0.0478587 0.016693 0.0110388 -0.0825469 -0.287212 0.179997 -0.13234 0.0146764 0.355383 -0.453657 -0.227747 -0.0175173 0.207207 0.0086989 0.0276558 -0.297063 0.0961645 -0.343113 -1.05489 0.296582 -0.184714 -0.176037 -0.156377 -0.0835771 0.283329 0.129627 0.263119 -0.0288459 0.106014 -0.271773 -0.248139 0.0233904 0.0111786 -0.0895316 -0.303903 -0.127009 -0.285246 0.208565 -0.211405 0.202302 -0.437325 -0.120224 -0.305864 0.061403 0.169141 0.15254 0.0212075 0.147865 -0.0212085 0.0244426 -0.203133 -0.0488026 -0.334333 0.368586 -0.0826227 -0.0378488 0.0993539 -0.122505 0.0185488 0.239961 -0.137032 -0.0907111 0.335364 -0.189391 -0.209817 -0.0626787 -0.333609 0.0240299 -0.0846199 -0.100445 -0.613914 0.109157 0.0237974 -0.10776 -0.168353 0.120074 -0.0118603 0.265227 0.0108001 0.0643902 -0.138665 -0.325801 -0.134912 -0.530477 -0.204749 0.304894 -0.0755849 0.00227151 -0.187034 -0.114789 -0.193722 -0.516103 0.0526381 -0.37026 -0.278422 0.162831 0.0146691 0.143272 -0.2108 0.0973698 -0.539274 -0.0139607 -0.324093 0.368893 0.48874 0.106929 -0.178718 0.166705 0.0836266 0.497808 -0.16238 0.164618 0.000443814 -0.339657 0.165203 -0.135924 -0.250769 -0.286301 0.062926 0.268832 0.0716893 0.118756 -0.0536154 -0.0217919 0.470438 0.237592 0.106049 -0.160844 -0.0906442 0.0249509 0.0613004 0.227052 0.254133 0.607937 -0.172553 0.216514 -0.110046 -0.282544 -0.250122 -0.0186433 0.188341 -0.223807 -0.370571 -0.290088 -0.0767584 0.0945956 0.0513718 0.0628689 0.187549 0.251012 0.323732 0.029912 -0.307551 0.427521 0.0369009 -0.171233 -0.0617222 0.0181013 0.397615 0.280698 -0.0545435 0.49933 0.29011 0.000845489 0.0381647 0.323393 0.162033 -0.129611 -0.534813 0.278074 0.00871154 0.0623066 0.185827 -0.100121 -0.109459 -0.466594 -0.233144 0.294231 0.170423 -0.177092 -0.0453298 -0.169881 0.0209913 0.124079 -0.207924 0.208479 -0.210506 0.0920528 -0.00793695 0.0217572 0.136059 0.221663 -0.286416 -0.450848 -0.20082 -0.353 -0.296217 -0.0285455 -0.144654 -0.170729 0.386533 -0.135005 -0.0673639 0.16189 -0.144675 -0.148673 -0.120965 -0.0987433 -0.262655 0.190249 0.287279 -0.168681 -0.0872082
r 0.135283 -0.0909287 -0.110184 -0.197681 -0.0128377 0.225657 0.0551497 -0.0234153 -0.260152 -1.04861 0.353175 0.194695 -0.173147 0.270954 -0.0184384 -0.145058 0.164342 -0.960051 0.0528608 -0.0767875 0.116464 -0.105867 -0.10689 0.137956 0.1001 -0.132049 -0.281083 -0.279704 -0.014164 0.0300738 -0.0043475 0.0115657 -0.218246 -0.0834532 -0.0559303 0.164137 0.0492688 -0.220221 0.0634739 0.0395547 -0.0814943 -0.1052 -0.107677 0.0363212 -0.0322108 0.141478 0.0506507 -0.124686 0.148549 0.092458 0.0213939 0.0117213 -0.170041 -0.00563419 0.115472 -0.0993948 -0.140861 -0.119894 0.0292773 0.336729 0.263122 0.114123 -0.040558 -0.155495 -0.0463104 0.211163 0.211063 0.0405202 0.0321585 -0.225918 -0.216097 -0.246925 -0.189084 -0.203729 0.162393 -0.132274 -0.16537 0.180334 0.288583 -0.0502318 -0.0747483 -0.0709382 0.00252458 -0.119957 0.202027 0.0792267 0.304013 -0.137195 -0.0276956 0.0297994 -0.00373225 0.0748894 -0.0237721 0.326475 0.0929751 0.259642 0.187129 0.101447 -0.100931 0.0785983 0.121137 -0.144652 -0.0417663 -0.0258372 -0.0156454 -0.432246 -0.065537 0.0891133 0.0182073 -0.10555 -0.21844 0.159816 -0.0231824 -0.135194 -0.0917937 0.0196121 -0.127508 0.00933413 0.0637798 0.0915393 0.315041 -0.0969413 -0.181792 0.102793 0.133683 -0.183331 0.0675469 0.175349 0.210243 0.102269 -0.103615 -0.0522419 -0.0608107 -0.0372902 -0.145631 0.324457 -0.102208 0.161161 -0.152916 -0.0105562 0.657973 -0.147941 -0.0832933 -0.0198444 0.0698271 0.0606383 0.0157969 -0.197824 -0.0165631 0.022654 -0.292531 -0.210247 0.112209 -0.11416 0.022722 0.0931928 0.0580794 -0.328937 0.150009 0.0826224 -0.0153212 0.126183 0.28263 0.286562 0.305021 -0.0346671 -0.0995763 -0.0119312 0.174903 -0.121975 -0.142785 0.131977 0.139378 0.0798874 -0.182986 0.230301 0.0422988 -0.0145786 -0.0399721 0.307213 -0.271576 0.103966 -0.366886 0.014719 0.168657 -0.0165448 0.103286 0.183067 -0.0129342 -0.181274 0.152671 0.0269059 -0.0334974 -0.0686006 -0.135219 0.00189586 -0.0208178 0.0192526 0.0584535 -0.167311 0.0495696 0.0739809 -0.0953847 -0.0224399 0.14443 -0.29491 -0.104951 -0.0362427 -0.301978 0.182191 0.14625 0.0830706 -0.0177181 0.161689 0.106616 -0.221314 -0.175356 0.0641775 0.138476 -0.225042 -0.167552 0.125501 -0.164274 -0.115072 0.168704 0.0760744 0.0274942 0.0312212 -0.133661 -0.214138 0.081407 -0.182021 -0.256168 0.0195556 0.1522 0.174844 0.0798995 0.188189 0.00673196 -0.106005 -0.0663435 -0.0914524 0.202484 -0.087754 0.0403469 0.161425 0.0634973 0.0548782 0.155241 -0.137954 -0.143767 0.074306 0.0143378 -0.0224909 -0.230714 -0.270665 0.202951 0.275705 0.0826438 0.00566199 0.102463 -0.216508 0.0127768 -0.077809 -0.342498 0.131566 0.244442 -0.198199 -0.379426 0.153379 0.173665 -0.028951 0.312095 0.188374 0.13985 -0.108326 -0.275755 0.0609349 0.19046 -0.209596 -0.135172 0.0752973 0.113135 0.0307555 0.310632 -0.15576 0.035745 0.395544 0.0377056 -0.0252116 0.317389 0.0424453 0.0222161 0.0511466 -0.121129 0.111402 0.28611 -0.00886933 -0.0024472 0.180655
v 0.44293 -0.436309 -0.137567 0.268799 0.0374128 0.170323 -0.0853732 -0.322948 -0.147177 -1.24869 0.170902 0.0161437 -0.142453 0.372748 0.176998 -0.0251801 0.181418 -1.12299 0.363364 0.251439 -0.241754 0.253934 -0.290186 0.0145576 0.234 -0.369936 -0.197402 -0.187985 0.0364409 0.173667 -0.285971 -0.342667 -0.258207 0.0587568 -0.389509 0.143491 -0.0645653 0.0790361 -0.152467 -0.168628 -0.15469 -0.365203 -0.139293 -0.381431 -0.0761812 0.0539106 -0.100378 0.057463 -0.428174 -0.32757 0.102023 -0.159857 -0.235463 0.103335 -0.0217938 -0.321528 0.141812 -0.261561 -0.109734 0.234382 0.0676146 0.0331397 -0.153659 -0.318958 0.260154 -0.40443 -0.216555 0.156895 -0.0972836 -0.0967529 -0.243525 -0.0641094 -0.196918 -0.179064 -0.419133 -0.387943 -0.428225 0.130494 0.135154 0.245969 0.0548418 -0.0803896 0.117776 0.296677 -0.186136 0.24341 0.235894 0.136843 -0.289168 -0.392891 -0.0919103 -0.0189694 0.00669461 0.265694 -0.0307073 0.437627 0.0286121 0.105665 -0.274647 0.172051 0.197744 -0.39258 0.0413943 -0.257169 -0.0695354 -0.538823 0.00606943 -0.201865 0.108886 0.0335179 0.0754177 -0.146494 -0.0424596 -0.176537 -0.451647 -0.273764 -0.187426 0.461089 0.113059 0.0974054 0.088253 -0.201836 0.0212398 0.0925596 -0.164559 0.350343 -0.330672 -0.143121 0.0471732 0.025718 -0.389 -0.292103 -0.0184712 -0.3518 -0.216568 -0.221018 -0.405633 -0.0880771 -0.0233589 -0.417403 0.551151 -0.0901047 -0.571037 -0.0772811 0.176697 -0.211514 0.180372 0.0195237 0.204027 -0.0974642 -0.090093 0.111498 0.270902 -0.12654 0.238918 0.413459 -0.011346 -0.267545 0.206933 0.183229 -0.105205 0.18356 -0.151671 0.243832 0.420575 -0.0274791 0.0212138 0.078386 0.0772274 -0.168722 -0.00253614 0.0653671 0.180991 -0.136702 -0.18832 -0.0682985 -0.265846 0.137014 -0.350167 0.220265 -0.147124 -0.190441 -0.207314 0.133176 0.325788 -0.0242128 0.0291659 0.127425 -0.206615 -0.230171 0.34639 0.335189 0.260086 -0.458671 0.232854 0.000807563 0.095786 0.0429164 0.399197 -0.142822 -0.180418 0.228546 -0.260006 -0.0414275 -0.315043 -0.283215 -0.0416634 -0.310323 -0.0506048 -0.0825499 0.152959 0.203587 0.069031 0.16518 0.170991 -0.446758 0.356163 -0.166117 0.531687 -0.209145 0.184203 0.0160145 -0.022192 -0.298954 -0.033658 -0.0288436 0.0243603 -0.0451675 0.166641 0.0217768 -0.115053 0.0460632 0.170171 -0.0444426 0.319944 -0.045388 0.134784 -0.0555461 -0.134739 0.0951164 0.327544 0.00730945 0.0604626 0.137995 -0.0637485 0.253739 0.214964 -0.507282 0.292925 -0.0335404 0.128756 -0.303261 0.212887 0.102057 -0.227806 -0.395785 -0.0674688 0.210909 -0.276753 -0.440827 0.00295901 -0.412708 0.430352 -0.289561 0.194638 0.122149 -0.0978417 0.277252 -0.462316 0.197087 0.0114881 0.0542 0.455697 0.0369327 0.135421 0.494792 -0.235301 -0.182324 -0.0558558 -0.0912719 -0.187026 0.0365274 -0.11547 -0.172213 0.0932231 0.00850979 0.20463 0.395166 -0.451268 -0.0188074 0.676403 -0.118532 -0.0825674 0.328619 0.505515 0.105874 -0.0284125 0.161274 -0.158448 -0.113525
x 0.410153 -0.132146 0.0394299 -0.204016 0.126496 0.0782864 -0.140615 0.0844923 -0.128497 -1.52635 0.382573 0.0304792 0.305764 0.0519579 0.35878 0.331613 0.331565 -1.05812 0.262651 -0.127488 -0.0498698 0.165388 0.30591 -0.083312 0.117908 -0.0286656 0.238691 0.0581341 -0.0713805 -0.110575 0.0410361 -0.0209907 0.126446 0.259783 -0.195106 -0.106425 -0.417533 -0.356937 -0.103863 0.486774 0.0295398 -0.313572 -0.114201 -0.0494171 -0.147245 0.0878688 0.443519 -0.393994 -0.104095 -0.0211819 -0.120011 -0.0621098 0.099993 0.144784 0.071524 0.097649 -0.120088 -0.342316 0.00374419 0.0318351 -0.170221 -0.232472 0.62901 -0.203884 -0.086704 -0.33733 -0.191258 -0.0316522 -0.0303979 -0.291526 0.147404 0.256968 -0.404648 0.436044 -0.0464359 0.0382322 -0.201141 0.150453 0.155109 -0.220178 -0.0619048 -0.179811 -0.117451 0.21424 -0.032751 0.00199873 0.687421 0.340784 -0.235136 -0.445039 -0.10545 -0.0594979 0.362347 -0.0101998 0.0201252 0.383405 -0.308664 -0.11679 -0.206209 0.0222344 -0.225028 0.132833 0.491335 0.0459657 0.0272758 -0.616529 -0.394022 0.14349 0.0619853 0.210213 -0.122089 0.316761 -0.0267703 0.443397 0.0802752 0.183087 -0.555127 0.215004 -0.334417 -0.154795 -0.042607 0.283982 -0.0645858 0.589031 -0.0712868 0.14575 0.264909 -0.0392416 0.344613 0.13679 0.118942 0.1715 0.0549693 0.00212504 0.31476 -0.402548 0.000618477 0.103025 0.0219417 0.13158 0.276844 0.0565811 -0.186831 -0.0380061 0.0648187 0.553238 0.333593 -0.196183 0.147641 -0.00803888 0.0238047 0.107137 -0.553998 -0.102847 -0.0987391 0.0628979 -0.160725 -0.106107 -0.0538772 -0.083515 -0.229573 0.184175 -0.0445689 0.143753 0.384475 -0.0628285 -0.0279842 0.018043 -0.46958 -0.350455 0.0118533 -0.146793 -0.112125 0.0286542 0.339477 0.172778 -0.104025 -0.0704742 -0.301163 -0.214487 0.0166583 -0.226339 0.259895 0.178695 0.158193 -0.138974 0.0193641 -0.150725 -0.166436 0.0278157 0.116797 0.14865 0.161811 0.144776 -0.0207929 -0.18548 0.202278 0.240542 0.523023 -0.0964308 -0.314533 -0.143738 0.0396627 -0.0288022 -0.587634 -0.384545 -0.0447247 0.382747 -0.235375 -0.0953269 -0.0843641 -0.0774336 0.110144 -0.00887058 -0.154481 -0.187147 0.141549 -0.126324 0.356326 0.178116 -0.0271499 -0.0860806 0.33029 -0.102964 -0.471448 -0.119373 -0.275074 -0.386966 -0.366397 -0.294881 0.0270686 -0.230264 0.25811 0.0643267 0.176208 0.141981 0.248415 0.463687 -0.05167 0.210638 -0.146971 -0.367696 -0.248192 0.0504992 -0.139401 0.0740214 0.161714 -0.298916 0.404621 0.0587444 0.28559 -0.161066 0.0438605 -0.24851 -0.149426 -0.694498 0.27733 0.0466801 0.0633828 -0.0151881 0.145536 -0.308044 0.0299245 -0.298776 0.210463 0.162623 -0.106291 -0.25179 -0.22153 -0.162305 -0.0256391 -0.130872 0.200156 -0.0396963 0.473191 0.196938 0.288719 0.473022 0.171285 -0.404115 -0.286262 -0.123421 -0.0313486 -0.0653369 0.421126 0.0307556 -0.017881 0.267069 -0.199033 0.125628 0.327176 -0.264549 0.0442034 -0.174794 -0.219889 -0.00131656 -0.0869901 0.140784 0.276918 -0.0197727
s 0.368026 -0.219522 -0.138279 -0.23925 -0.0996681 -0.00223814 -0.0681772 0.196945 -0.0995443 -1.17386 0.355073 -0.171611 0.127753 -0.0344442 0.302703 0.165061 -0.0897028 -0.938708 0.000920058 -0.0118876 0.345134 0.00859185 0.250196 -0.304972 0.0932891 0.00203111 0.0272598 0.0145289 -0.451092 0.0359185 -0.101268 0.177298 0.0800245 -0.147552 0.00944788 -0.278431 -0.089111 -0.0804551 0.170386 -0.00741825 -0.221975 0.0381785 -0.039895 0.121852 0.00557413 0.0451364 -0.103593 -0.130323 -0.0519012 -0.0229461 -0.224733 0.300611 0.218762 0.0955279 -0.194386 -0.0825569 0.188412 0.287473 0.0340178 0.251964 0.298758 -0.0853991 0.00316671 -0.330323 -0.152518 0.0693437 0.234928 -0.351335 0.0859962 -0.176959 -0.0906472 0.280721 -0.189579 0.417509 0.201393 -0.211441 0.0730959 0.0791943 0.131897 -0.107304 -0.46931 -0.1505 -0.199336 -0.119649 -0.374734 0.0617944 0.397726 0.243504 -0.339946 -0.324823 0.179249 -0.140306 0.28461 0.0502501 0.0751557 0.229598 -0.163772 0.0675589 0.0952315 -0.166976 0.0426261 0.0454145 -0.120588 -0.0252258 -0.00638528 -0.874206 0.0333235 0.200617 0.158345 0.314171 -0.14239 0.112416 0.0287632 0.177252 0.218849 0.0216559 -0.128821 0.0598193 0.0484633 -0.0235752 0.0606467 -0.119344 0.174016 0.158822 0.177991 -0.11094 -0.0109598 0.106609 0.163187 -0.123751 -0.0911337 -0.0344744 -0.0764424 -0.0779226 -0.0152423 -0.0880496 0.00431601 0.0084785 0.202534 0.409645 0.463588 -0.0559077 0.0882444 -0.0461704 0.015259 0.211181 0.181443 -0.0896708 -0.0576821 0.185379 0.0727249 -0.333469 -0.0955195 0.231168 -0.0809169 0.208528 -0.0136102 -0.301098 -0.171762 -0.167537 0.0716459 0.00700772 0.0155972 0.231032 0.225905 -0.0855749 -0.213332 0.0276155 0.0735863 0.0329749 0.0724635 0.0332128 0.238044 -0.129452 0.153353 0.071094 -0.14181 0.19226 -0.191365 0.042717 0.078283 0.20036 0.241839 0.0113456 -0.0269416 0.0157302 0.174689 -0.0755278 0.170049 0.226246 0.147773 -0.204181 0.121797 -0.0166775 -0.00416851 -0.17391 0.131868 -0.089993 0.0988351 -0.126021 0.0421179 0.0169413 -0.244381 -0.244583 -0.421027 0.0842017 0.21138 -0.0239814 -0.191021 0.243538 -0.122717 0.333803 -0.122929 0.166175 -0.111437 -0.368482 -0.0574615 -0.132571 0.497945 -0.250746 -0.0646701 0.0521901 0.130336 -0.112345 0.0198824 -0.248836 -0.299198 -0.231141 -0.160134 -0.183686 -0.17257 -0.0721137 0.114074 0.0391259 -0.0254863 0.184656 0.0314781 -0.12004 -0.291094 0.00515412 -0.110983 -0.0766604 -0.36082 -0.0627585 0.0135247 -0.0551437 -0.297319 -0.148357 0.336999 0.302159 0.0713317 0.113244 -0.100309 0.151925 -0.152281 -0.170188 -0.0268193 0.080861 0.0536577 0.0861763 0.0840936 -0.0708466 -0.318186 0.0362825 -0.286052 0.0667347 0.02154 -0.0151266 0.0125577 0.173308 0.152601 -0.254393 -0.21519 0.132433 -0.0203975 -0.197221 0.151964 0.110852 0.0971384 -0.217101 -0.0303119 0.0596572 -0.195338 0.131864 0.110287 0.0845893 0.0774483 -0.000122969 -0.0398117 0.110322 0.13719 0.0434291 0.00631807 -0.184523 -0.0745805 0.0156024 -0.0888172 0.132586 0.123796 -0.254308
0 0.139985 -0.160576 0.265423 -0.248599 -0.530896 0.0597618 0.0527453 0.109064 -0.0840065 -1.54358 0.416275 -0.259445 -0.292805 0.23978 0.172041 0.0493315 0.0661456 -0.776835 0.338132 0.230492 0.10112 0.271083 0.41239 0.0212576 0.0810497 0.0813336 -0.0682325 -0.234258 -0.30252 0.368476 0.222976 0.041235 0.0540128 0.0781874 -0.157085 -0.000515192 -0.0134352 0.131613 0.101985 0.436821 0.0319898 -0.204106 -0.0596352 0.188441 -0.145924 -0.0438027 0.315655 -0.167679 -0.212705 0.158669 0.104405 0.362528 -0.0888957 0.0229528 -0.0938032 0.171229 0.335058 0.00923283 0.314712 0.231509 0.0152784 -0.13333 -0.0836479 -0.355344 -0.496927 0.106367 0.328658 -0.109572 -0.0487273 -0.0805396 0.0320631 -0.0656905 -0.44352 0.0156962 0.00647416 0.0540877 0.243323 0.158374 0.044057 -0.465795 0.214695 0.265167 0.0780969 -0.0122218 0.214006 0.385629 0.722492 -0.10308 -0.234016 0.0669079 0.226149 -0.0427517 0.0739598 0.121548 -0.0286372 0.257133 0.0413146 0.00265413 0.104606 -0.0507846 -0.0849612 0.0662825 0.060416 0.384963 -0.101592 -0.140321 0.043454 -0.171732 0.218544 0.051466 -0.0985399 0.265889 0.113513 -0.00283286 -0.0756689 0.34303 -0.153561 -0.289982 0.0755143 -0.183036 -0.0361849 -0.122307 -0.127059 0.158405 0.0735532 -0.119256 -0.332474 0.36276 -0.103742 -0.225478 0.027488 0.179798 0.0803058 0.0713189 -0.233868 -0.103945 0.0548888 0.392305 0.0297475 0.203783 0.68975 -0.0608126 -0.0233196 0.015505 -0.0646966 0.223144 -0.0965803 -0.312833 0.00310216 -0.0222939 0.0622 -0.187231 0.0844067 0.0136749 -0.241015 0.215769 0.444452 0.13875 0.159852 0.486698 -0.180424 -0.0497285 0.0177703 0.214546 0.180273 0.49065 -0.41438 -0.153298 0.0507756 0.0187413 0.491666 -0.0685688 -0.0860423 0.132894 0.275121 0.0503477 -0.0442572 -0.203932 -0.0271886 0.149768 -0.0169586 -0.0780687 0.25253 -0.00395567 0.30492 -0.15755 0.249518 0.043805 -6.26681e-06 0.0704968 0.0964316 0.227193 -0.0177894 -0.365526 0.150197 -0.319643 -0.1867 0.131297 0.443838 -0.393072 0.133867 -0.0332083 0.0451943 0.0806759 -0.139985 -0.518487 -0.158955 -0.304535 -0.0616769 0.0169957 0.375213 -0.0489995 0.0599345 0.143926 -0.0959162 -0.00674915 0.106682 -0.1322 0.406538 -0.117961 -0.00933344 -0.232884 0.0138846 -0.206965 0.0732167 0.100998 0.258826 -0.427673 0.236019 -0.277556 0.0316146 -0.101147 -0.272138 -0.0594317 -0.123826 -0.0655041 -0.220445 0.131774 0.203999 -0.203414 -0.00339323 -0.0226117 -0.282201 -0.268152 -0.252947 0.0530103 0.202492 0.0922617 0.18615 0.102936 -0.256648 0.0704562 0.13726 0.016246 -0.225719 -0.19766 -0.260361 0.214181 -0.114406 -0.227375 -0.16795 -0.251645 -0.0698944 0.0230424 -0.295453 0.020265 0.0903458 0.0981225 -0.552125 0.135757 -0.0962856 0.0195716 0.118092 0.33841 -0.199459 -0.13998 -0.161431 -0.0632231 -0.433866 0.193863 -0.321099 -0.288283 -0.0451785 -0.223965 0.25955 -0.0963305 0.0211922 0.135534 -0.182798 0.446318 0.68481 0.111745 -0.0584808 -0.043648 -0.153109 0.0528466 0.0170503 0.219463 -0.0848715 -0.0745367
d 0.310747 -0.44868 -0.0329828 0.0726109 -0.245013 -0.0477348 -0.204277 -0.0935042 -0.301948 -1.05966 0.423052 -0.157565 -0.393087 0.168164 0.133573 -0.0629206 0.11583 -0.88163 0.11133 0.261091 -0.286368 -0.00900965 -0.0332385 0.0755033 -0.140738 0.195873 0.0576766 -0.00203578 -0.242814 0.00970358 0.0706169 -0.260157 -0.16393 0.392391 -0.0624398 0.045898 -0.0151932 -0.00439554 -0.0986426 -0.0058753 0.0323047 -0.12148 -0.10748 -0.152248 -0.226612 -0.0348708 0.0772131 -0.0294754 -0.127496 0.185589 -0.0987717 0.0694208 -0.211201 -0.0753198 0.188667 -0.0786474 -0.0466422 0.140784 -0.0468092 0.374348 0.0122764 0.213842 -0.138321 -0.243883 -0.131388 0.278086 0.161967 -0.00486763 0.19295 -0.263554 -0.173287 0.160025 0.156363 0.037995 -0.200558 -0.14354 -0.0869376 0.165327 -0.377298 -0.132603 0.00307677 0.341914 -0.0570274 0.166826 -0.192985 0.273916 0.507052 -0.189697 -0.13428 -0.146905 0.0406364 -0.100123 0.0472507 0.216457 0.0512523 0.247197 -0.163923 0.260139 0.134187 -0.261138 -0.0528301 0.0284441 -0.301843 -0.288677 0.0512213 -0.574883 -0.062616 -0.251912 -0.11505 -0.086121 -0.216858 0.0838613 -0.276335 -0.0951659 -0.0529009 -0.115543 0.238387 0.00126458 0.049965 0.11539 0.122164 -0.244289 0.494465 0.13329 -0.167354 0.105681 -0.262817 -0.0957617 -0.147051 -0.0364248 -0.226408 0.104683 -0.258925 -0.0095446 -0.0213353 0.172413 -0.0528476 -0.0330454 -0.00210296 0.0925915 0.581611 0.0425508 -0.0867017 -0.0848503 0.0698587 0.0204551 -0.0069625 -0.128983 -0.0588751 0.0557412 0.0379992 -0.167348 -0.0223765 -0.114001 -0.163836 0.0621159 0.13734 0.0617552 0.0785929 -0.0641132 0.0420851 -0.304912 -0.0686793 0.403008 0.380253 0.0177989 -0.198949 -0.137942 -0.0863217 -0.0250705 0.392232 0.206115 0.0373908 -0.0193032 0.430078 -0.0716589 0.00566746 -0.131178 0.00525156 0.0970093 0.0181935 0.15051 0.237209 -0.0234499 0.0768707 0.158005 0.154618 0.0297203 0.0253173 0.152486 -0.151936 0.154896 0.0714721 0.00312185 -0.145397 0.059032 0.250173 0.0826228 -0.000925642 -0.296564 -0.147557 -0.00521982 -0.152476 -0.408938 0.170446 0.0609772 -0.131439 -0.0170924 0.0668658 -0.114273 -0.334692 0.148019 0.0227256 -0.335542 -0.273106 -0.357082 -0.0608098 0.211511 0.446749 -0.260934 0.0222667 -0.193566 -0.0395365 -0.0770541 0.0701472 0.167402 -0.0462758 -0.00632992 -0.0372712 -0.20775 0.10972 -0.197092 -0.220778 -0.043986 0.246131 0.09289 -0.108045 0.134835 0.272614 -0.431581 -0.0452758 0.346961 -0.0589501 0.087473 -0.0784508 0.192649 -0.126677 0.181287 -0.0660731 -0.0672873 -0.116361 0.0135331 0.196174 0.0302408 -0.18344 -0.375504 0.109311 -0.207996 0.202513 -0.0492957 -0.0817318 -0.386245 0.212933 -0.318107 -0.0189547 0.347626 0.0495122 0.364924 -0.37391 0.0917515 0.0386651 -0.25786 0.126652 -0.0128122 -0.230514 -0.342933 -0.319793 0.0929755 0.065635 -0.151007 -0.298741 0.0166219 -0.0575868 -0.00364547 0.118965 0.189292 -0.124889 -0.139221 -0.189635 -0.128717 0.253115 -0.076136 0.279359 -0.099269 -0.152493 0.149547 0.0782452 0.120672 0.000842545 0.0811712
c 0.113126 -0.110791 -0.0784181 0.151308 -0.175834 -0.0506368 0.190381 0.0756326 0.0244445 -1.02237 0.116045 -0.137639 0.0528594 0.16183 0.0752736 0.143913 -0.00111558 -0.902253 -0.0341001 -0.0521624 -0.0907946 -0.246952 0.224957 -0.119719 -0.221575 0.0133288 0.103675 0.21673 -0.183882 0.00452826 -0.0618128 -0.234842 0.0857983 -0.21722 -0.375353 -0.0840144 0.0350672 0.0356256 -0.0746609 0.0415546 0.00273907 -0.0884166 -0.0476784 0.0010285 0.0930914 0.0676672 0.143258 -0.0715603 0.178354 0.0650411 -0.046433 0.0401814 0.0935894 -0.215299 -0.247392 -0.252376 -0.248926 0.0137675 -0.292103 0.198529 0.302702 0.345901 -0.0716287 -0.423778 -0.0528786 0.134057 -0.324427 -0.1902 -0.35331 0.0930472 -0.212391 -0.443955 -0.0575526 -0.0699479 -0.216018 -0.238132 -0.143793 -0.188604 -0.182858 -0.039603 -0.00802795 -0.348717 0.26729 0.121824 0.0865917 -0.0528332 0.207147 -0.0218078 -0.0433926 -0.0201839 0.145857 0.089215 0.12147 0.0840834 -0.0471893 0.167425 -0.0988639 0.00957171 0.253558 0.136468 0.0918565 -0.157042 0.164818 -0.0227861 -0.0112814 -0.831202 0.326315 -0.349275 -0.217257 -0.0728299 0.101751 0.237276 0.089248 0.0575156 -0.0677602 0.374266 0.0363744 0.0909805 0.00330421 0.111068 -0.036098 -0.242412 0.203939 0.158941 -0.218037 0.0165334 0.117893 -0.216227 0.35734 0.127235 -0.033954 0.337561 0.0357774 -0.0284615 0.236769 0.025041 -0.433445 -0.31346 -0.204349 0.214308 0.70884 -0.042597 -0.161636 0.166125 0.306383 -0.0940213 -0.0125849 0.160172 -0.166288 0.357685 0.213919 -0.119682 0.146448 -0.17624 0.0313864 0.100352 0.180679 -0.330347 0.0286656 -0.0757053 0.0119393 0.226715 -0.0407313 0.283215 0.279144 -0.269875 -0.261704 0.0488215 -0.032182 -0.127089 -0.0817925 0.175532 0.024649 0.0765834 -0.10755 0.0901701 -0.15618 -0.0924839 -0.259557 0.0216129 -0.177801 0.29813 0.0617384 -0.0702094 0.224179 -0.129368 -0.0156161 -0.0542296 0.280334 -0.141352 0.0408637 0.0349094 0.234583 -0.0873168 -0.113282 0.030291 0.237369 0.207028 -0.0260919 -0.418958 0.0164151 -0.0214783 -0.224755 -0.00759012 0.0225396 0.0808242 0.106907 0.158492 -0.202754 0.0130999 0.182623 0.367728 -0.07979 0.0928242 0.0276296 -0.104027 0.169273 0.206262 0.389389 -0.28243 0.436907 -0.203875 0.0751293 -0.243824 -0.301405 -0.0845248 0.0809488 -0.194152 0.156391 -0.168925 0.160257 0.304278 -0.111452 -0.249302 -0.282861 0.0346244 -0.0431049 -0.1148 0.120537 -0.000950886 0.0248421 0.0416825 -0.369789 -0.0771022 0.243888 0.0490424 0.0761392 -0.0267337 0.0241441 -0.170999 0.280837 -0.151638 -0.0556309 0.0463346 4.41504e-05 -0.283795 -0.396704 -0.058462 -0.103307 0.0608479 0.0729269 0.167858 0.141445 -0.239667 0.00888667 0.1552 -0.142381 -0.0188938 -0.288226 0.243098 -0.34423 -0.241145 0.138066 0.304411 0.000290337 0.0809491 -0.00417489 -0.216718 -0.0208975 -0.16311 0.00977565 -0.243324 0.147456 -0.0712204 -0.00444867 -0.260291 -0.160892 0.199696 0.251937 0.081791 0.314041 0.0953047 -0.117781 -0.0784629 0.229835 0.494244 0.0532252 0.0765054 -0.0124992 -0.0434613
q 0.542025 -0.135666 0.332714 -0.333257 -0.0113793 -0.280202 0.274469 -0.103613 -0.421016 -1.35661 0.533662 -0.356385 -0.300549 0.190698 0.0143003 -0.321162 0.0479881 -0.839245 0.49557 -0.0812322 0.540413 0.522542 0.54996 0.109648 0.147018 0.228719 -0.38429 0.171833 -0.225784 0.251133 0.264134 -0.487728 -0.291729 -0.209751 -0.490141 -0.125145 -0.270465 -0.269579 0.152343 -0.31207 0.236157 -0.301531 -0.53797 -0.123102 0.0419538 -0.080161 0.408985 0.0310676 -0.626382 0.440935 0.251046 0.458184 -0.145115 0.0791147 0.0466103 -0.0424942 0.161562 -0.0271309 0.452186 0.643363 -0.174638 0.457523 0.0326045 -0.115783 -0.384355 -0.24262 0.621007 -0.211076 0.0589056 -0.361359 0.197337 0.00149168 -0.277246 -0.00320124 -0.0325985 -0.731828 -0.077299 -0.0481133 -0.308853 -0.612618 0.0794804 -0.231929 0.0733612 0.0154917 -0.129453 0.446869 0.693372 0.352701 -0.489878 -0.327986 -0.250957 0.131753 0.557512 0.0697321 -0.17717 0.164186 0.0536564 0.558198 0.00353842 -0.181071 -0.164491 0.161463 0.106385 0.4126 0.217667 -0.655791 -0.398494 0.0826792 0.277457 0.169504 0.0557042 0.384562 -0.140152 -0.177472 -0.272637 0.0619393 0.499673 0.375992 -0.0752742 -0.236519 0.1887 -0.164002 0.385464 0.473534 -0.366258 0.0698561 -0.468852 0.568792 -0.343381 0.0248036 0.0137702 -0.254338 0.0883761 0.0167782 0.0527071 0.41506 -0.226889 -0.234892 0.437032 0.438087 0.470291 -0.224988 -0.223235 0.0783112 -0.127914 0.765088 0.34358 -0.00977406 0.182962 0.278544 0.0589698 -0.301292 0.377281 0.572213 -0.0797343 -0.19989 0.227604 0.134135 0.318174 0.236787 -1.03817 0.743335 -0.152591 -0.0951716 0.534871 0.296649 -0.335188 -0.13798 -0.516334 -0.458443 0.383854 0.200373 -0.0110277 0.257051 -0.106395 0.0630956 -0.131981 -0.275097 -0.125418 0.175253 -0.139684 -0.293997 0.1127 -0.134424 0.618235 -0.312887 0.139542 0.167719 -0.245864 0.360718 0.433537 0.119636 0.281781 -0.0114686 -0.121862 -0.218498 0.0135519 0.116275 0.311527 -0.263614 0.231475 0.304841 -0.0273301 -0.143209 -0.220792 -0.23137 0.0366809 -0.134387 0.0303332 0.153208 0.00528161 0.117264 0.416962 0.176416 -0.0899896 -0.162272 -0.491584 -0.391909 0.454348 -0.152222 -0.337708 0.0529993 0.190415 -0.184046 -0.0639148 0.128567 -0.351712 -0.0633979 0.0916176 -0.446146 0.219713 0.160349 -0.0610167 -0.349563 0.119975 -0.107306 -0.318186 0.628939 0.412169 -0.786409 -0.0460788 0.0171563 -0.338419 -0.0848887 -0.196794 0.386221 0.555096 -0.177535 0.10111 0.0408724 -0.254141 -0.183615 0.139998 -0.173752 -0.300164 -0.643608 -0.0214359 0.167865 -0.627849 -0.557215 0.0155687 -0.558758 -0.152453 -0.724555 -0.259837 0.262466 -0.215837 0.0828013 -0.342653 0.140288 0.123018 -0.408403 -0.00463671 0.416584 -0.199758 -0.0154502 -0.551441 -0.2528 -0.409428 -0.430024 -0.497148 0.478912 0.0555879 0.386825 0.304474 0.242366 0.258521 -0.269555 -0.316901 0.326684 0.714812 0.209874 0.235893 -0.043921 0.301024 0.547175 0.0613075 0.239393 0.0207504 -0.207758
j 0.091883 -0.480886 -0.0902824 0.19614 -0.210412 0.0295606 -0.31217 -0.0613591 -0.0293098 -1.50189 0.356495 -0.172663 -0.258747 0.211468 0.252448 -0.168372 0.56907 -1.10131 0.239239 0.291399 0.235267 0.011726 -0.0144463 0.0476338 -0.0673829 -0.314918 0.138247 -0.0970507 0.0252535 0.0889884 0.371882 -0.220777 -0.216357 -0.170183 -0.419379 0.10817 -0.134373 -0.0401111 0.187014 0.191061 -0.417154 -0.510218 -0.387448 -0.0336712 -0.00257841 0.0558545 0.12194 -0.296005 -0.0734224 -0.259469 0.123185 -0.146699 0.0297353 -0.200781 -0.0705386 -0.0771691 0.364141 0.353071 -0.17123 0.175794 -0.00735827 0.0941092 -0.146923 -0.377721 -0.218211 0.0834552 -0.0792068 -0.316932 -0.0652975 -0.384467 0.178985 -0.284719 -0.241633 -0.342356 -0.116424 -0.300006 -0.137433 0.324043 0.265752 -0.0174958 -0.325302 -0.411197 0.167698 0.0870375 -0.37801 0.26991 0.36307 -0.0488555 -0.265917 -0.199868 0.0393527 0.00861835 -0.035246 0.213953 -0.354671 0.383016 -0.186064 -0.189357 0.10583 0.379256 0.165531 -0.0898955 0.123696 0.270002 -0.189332 -0.736729 -0.00285539 -0.0282643 0.175794 0.00958009 0.00800113 0.134085 -0.031926 -0.0869657 -0.034217 0.0202868 -0.0738737 -0.385138 0.131221 -0.0627702 0.0735293 0.0947186 -0.106403 -0.109576 0.0255682 -0.127441 -0.290523 -0.0369397 0.0922315 -0.0442536 0.0449892 -0.260575 -0.117437 -0.0807157 -0.155157 -0.257254 -0.0956838 -0.283873 0.0503989 -0.136189 0.990317 0.0809211 -0.441269 -0.0725789 0.0294592 0.0404149 0.176991 -0.0736082 0.170559 0.407259 -0.378853 -0.338182 0.355515 -0.0342081 0.0654042 0.292186 -0.173074 0.0614153 0.320803 -0.109981 0.219137 -0.0221259 -0.210964 0.357126 0.181306 0.171921 -0.407683 0.16278 -0.297478 -0.0659217 -0.293659 0.0398911 0.311517 -0.142983 -0.110425 0.0177718 -0.2388 0.302419 -0.624942 0.217274 -0.0017119 0.0269123 0.0998989 0.372997 0.205084 0.0510522 0.123251 -0.15953 0.0136184 -0.33888 0.407697 -0.273283 0.393243 -0.479518 0.126656 -0.494537 0.235261 0.142176 0.401147 -0.326755 0.162789 0.283917 -0.0735036 -0.221522 -0.686635 0.0072441 -0.159175 -0.142541 -0.0878939 0.353397 0.369078 0.588442 -0.250346 0.605736 -0.168557 -0.322943 0.226471 -0.0940357 0.222987 0.0529867 0.178965 -0.34553 0.445325 -0.188413 -0.152615 -0.251944 -0.109761 -0.12564 -0.017784 -0.0629009 -0.0833444 -0.303055 -0.323614 -0.0673473 0.127781 0.156936 0.0144719 -0.179117 0.158875 0.145126 -0.326716 -0.219211 0.0792548 -0.342834 0.310323 0.286415 0.283216 -0.0258643 0.217192 0.0905277 0.0063199 0.00563854 0.211981 0.115111 -0.0877128 -0.610343 -0.229309 0.0970754 -0.15854 -0.31463 -0.0551539 -0.528784 -0.0439208 -0.0133398 -0.121068 0.0904495 -0.0374414 -0.199272 -0.429715 0.0312246 -0.627558 0.184205 0.354932 0.535019 0.0195942 0.36672 0.0731704 -0.00861859 0.0535203 -0.253511 -0.440837 -0.263212 -0.39694 0.00706674 0.120814 0.341545 -0.094473 0.336802 -0.187305 0.115461 0.501398 -0.338153 -0.271912 0.00765835 0.0767699 -0.101103 -0.089462 0.429509 0.223909 -0.116939
8 0.168806 -0.104446 0.248297 -0.169172 -0.287095 0.203052 0.113039 0.103025 -0.0495838 -1.68137 0.359517 -0.0129043 -0.139241 0.0336437 0.326567 -0.089614 0.010548 -1.09837 0.345023 0.197964 0.134749 0.117502 0.329653 0.0693125 -0.00571953 0.0500797 -0.116457 -0.180928 -0.231944 0.147213 0.103865 0.139526 0.0472479 0.0718229 -0.341337 -0.0401278 -0.100501 0.219789 0.180558 0.643309 -0.238165 -0.336518 -0.168699 0.226911 0.0242514 -0.0115945 0.296063 -0.102251 -0.0279948 0.0581868 -0.0148177 0.440708 -0.141215 0.0190263 0.0273043 -0.164507 0.234414 0.0197533 0.324108 0.254371 0.133614 -0.251403 -0.209241 -0.504122 -0.277715 0.222569 0.19959 -0.164946 -0.00258705 -0.361634 -0.135307 -0.117376 -0.374627 -0.0387737 0.0394328 0.103876 0.153994 0.336537 0.134753 -0.33977 -0.216577 0.0140056 0.231653 -0.123915 0.0859538 0.184794 1.10736 -0.122375 -0.331242 -0.119351 0.265857 -0.0705813 0.218814 0.0843375 -0.0456136 0.1329 -0.28505 0.0181483 -0.148273 -0.00697178 -0.045014 -0.208306 0.232672 0.212616 -0.0960267 -0.479095 -0.0142346 -0.200365 0.117019 0.0472104 -0.00920005 0.217074 -0.0880841 0.210421 -0.0494141 0.163003 -0.172541 -0.238552 0.155784 -0.142518 -0.0861003 0.132883 -0.0380795 0.0578148 0.186313 0.0429008 -0.0322576 0.360017 0.0906084 0.0930382 -0.0760723 -0.149791 0.193288 -0.18835 -0.251293 -0.0183037 0.0161631 0.287292 -0.0533901 0.274765 0.973848 0.174477 -0.362541 -0.0225238 0.150142 0.447455 0.116188 -0.208041 0.0459894 0.0526026 -0.0174163 -0.0876148 -0.0587853 -0.11521 -0.361295 0.313135 0.305674 -0.164458 -0.00710067 0.238349 -0.0995234 -0.189497 0.0514497 0.30723 0.228412 0.371757 -0.131065 0.118141 -0.292606 0.0506273 0.118823 -0.0998286 0.109267 -0.0505972 0.145742 -0.130832 -0.160543 -0.0753684 -0.343803 0.0919338 0.09418 -0.032955 0.334858 0.100785 0.229607 0.0843691 0.0444149 0.00177864 -0.0133175 0.20331 0.393088 0.255024 0.223078 -0.305783 -0.0888085 -0.395705 -0.0160079 0.0149809 0.142564 -0.360098 0.0928153 0.148748 -0.150327 -0.176427 -0.208526 -0.38068 -0.0386091 -0.0296401 0.0243985 0.159664 0.359247 0.0231251 -0.0788405 0.313496 -0.0268677 -0.200539 0.127821 -0.112639 0.302499 -0.160398 0.211638 -0.262601 0.076432 -0.366126 -0.154372 -0.103509 0.143031 -0.360049 0.083509 -0.373669 0.0488156 0.0571254 -0.184255 -0.0318192 0.0506703 0.185242 -0.0514315 0.0347577 0.207202 0.00638651 -0.128725 -0.158568 -0.190883 -0.135113 -0.212741 0.0729759 0.0899787 -0.0158091 0.520689 0.0937449 -0.350605 0.188563 0.0706684 0.238518 -0.0626329 -0.435415 -0.0669505 0.175386 0.0877684 -0.0996732 -0.141 -0.306236 0.060336 -0.0180252 -0.21573 0.207607 0.0984713 0.0012962 -0.760492 0.149765 -0.170237 -0.00706237 0.140838 0.489313 -0.206001 -0.120551 0.0506059 -0.134569 -0.15786 -0.160369 -0.251112 -0.252998 0.0305549 -0.130836 0.304322 -0.0590159 -0.183923 0.113943 -0.357426 0.430665 0.448895 0.112891 -0.230992 0.12776 -0.153594 -0.0515466 0.0610521 0.406475 -0.0373067 -0.234025
g 0.0284241 -0.121997 0.0744375 -0.200086 -0.170378 0.153433 -0.0414506 -0.06434 -0.0625192 -1.2317 0.49534 -0.173255 -0.0563704 0.310859 0.176355 -0.305873 0.258793 -1.04754 0.252114 0.16938 0.330176 -0.00300518 -0.0439055 0.267048 -0.131887 0.0552859 -0.0184149 0.40616 -0.404405 0.0159785 0.179109 -0.480507 -0.144481 -0.134867 -0.1897 -0.261263 0.0534729 -0.144279 0.117367 -0.247824 -0.285172 -0.283491 -0.459921 -0.066657 -0.293268 0.0355438 -0.0285837 -0.235004 -0.241166 -0.42097 0.0608077 -0.160125 0.188887 -0.147418 -0.0559045 -0.223731 -0.127838 0.167773 -0.0708199 -0.028153 -0.0343881 -0.125274 -0.315695 -0.231059 -0.0153688 0.239826 -0.0224698 -0.252902 -0.103455 -0.27285 0.066021 -0.237078 -0.203548 -0.334988 -0.0656408 -0.392881 -0.0429283 -0.00728361 -0.0918722 -0.206309 -0.332955 0.0160861 0.0802832 0.191295 -0.0801204 0.0350983 0.40369 0.213332 -0.272014 -0.230089 0.17244 -0.0637413 0.136926 0.112008 -0.533396 0.174938 -0.131531 -0.193149 0.400134 -0.068456 0.131246 -0.225274 0.1844 -0.196395 -0.245059 -0.512377 -0.257128 0.388276 0.0161938 -0.00986394 -0.080211 0.0529096 -0.252161 -0.197444 0.171008 -0.252771 0.234185 -0.150189 0.485019 -0.277273 -0.0104481 0.218413 0.466479 0.117802 -0.152074 0.0324348 -0.287698 -0.0391702 -0.0607481 -0.179368 -0.229929 0.0123704 -0.0720099 0.112758 -0.0810871 -0.443702 -0.0427285 -0.142122 -0.215433 -0.106786 0.330471 -0.146019 0.0810452 -0.0636661 0.246384 0.21406 0.321975 -0.249087 0.121722 0.0792778 -0.113161 0.122997 0.193313 -0.0512658 -0.0266473 0.177089 0.113226 0.115743 0.250141 0.330894 -0.0581927 0.119714 -0.383654 0.0991428 0.302664 0.0501435 -0.68124 -0.224371 0.157207 -0.301638 -0.328286 -0.0139877 0.21625 0.2613 -0.0784435 -0.120869 -0.0155471 0.183793 -0.402324 0.165055 -0.150458 -0.0181093 -0.0978285 0.327863 0.0759211 0.15902 -0.183104 -0.269264 0.143071 -0.11464 0.334399 0.0710211 0.344485 -0.0322146 -0.17879 -0.144421 -0.0723482 -0.0313521 0.179618 -0.265822 0.186787 0.299836 0.110216 -0.0242064 -0.366126 -0.0584359 -0.0793638 0.125838 0.09298 -4.00041e-05 0.271002 0.130372 -0.134925 0.0653907 -0.00631816 -0.377481 -0.190035 -0.287223 0.331166 0.0301327 0.158209 -0.0327085 -0.0501907 -0.11315 -0.146958 -0.0263335 -0.3253 -0.106555 0.196443 -0.0788911 0.241432 -0.0767335 -0.148791 -0.195455 -0.128519 -0.0883873 0.349956 -0.0227668 0.112852 -0.130852 0.0229129 -0.0359667 -0.0930507 -0.032768 0.0667253 0.342733 -0.0694478 -0.132986 0.649038 -0.165072 0.0391872 -0.239278 0.0331239 0.0417168 0.0829564 -0.435534 -0.0592405 0.0566119 -0.260015 0.0525176 -0.0495682 -0.142462 0.168776 0.0345891 -0.0140436 0.234726 0.206512 -0.101419 -0.241141 0.341168 -0.0425144 -0.243398 0.0647063 -0.0155766 0.407389 -0.00790582 0.0435726 -0.0193736 0.00089653 -0.130384 -0.0898446 -0.338642 -0.229566 -0.237412 -0.359259 0.374288 -0.182302 -0.230607 -0.174962 -0.0805061 0.373033 -0.198977 0.0779198 -0.79447 0.0460107 0.147755 0.0270628 0.0548061 -0.183849 -0.257189
1 0.145095 -0.0668836 0.391446 -0.0372553 -0.454538 0.128981 0.181775 0.223646 -0.0612391 -1.55672 0.489639 -0.011871 -0.136602 -0.0518357 -0.0418001 0.153188 -0.0921978 -0.960986 0.41726 0.142558 0.1934 0.217074 0.491221 0.114686 -0.0323554 0.280969 0.130777 -0.138292 -0.164001 0.350446 0.0958819 -0.0735539 -0.0414599 -0.202249 -0.457937 0.0675914 0.111477 0.256771 -0.110921 0.498183 -0.218864 -0.285242 -0.173288 0.227855 -0.14756 -0.183832 0.178497 0.0455881 -0.248467 0.188289 0.0597698 0.22629 -0.264824 0.0144686 0.00139584 0.120581 0.285287 0.270321 0.0306599 0.170931 -0.12068 -0.0976913 0.006638 -0.653317 -0.589974 0.0924323 -0.00107435 0.220291 -0.364411 -0.146327 -0.143551 -0.114501 -0.400934 0.184277 -0.0522945 0.082249 0.151575 0.229788 -0.119255 -0.252237 -0.0479813 0.0770368 0.353528 0.101361 0.016722 0.439378 0.827979 -0.212191 -0.634639 -0.0752859 0.544469 -0.121955 -0.00932424 -0.0488907 0.0320063 0.0170129 -0.205865 -0.00826918 -0.228631 -0.0939147 0.0780969 -0.259639 0.153335 0.258777 -0.24164 -0.208291 -0.0546148 -0.342111 0.0223483 0.000162156 -0.0284153 0.231495 0.000953154 0.0948554 -0.141788 0.166707 -0.141739 -0.179674 0.0722437 -0.559157 -0.338338 -0.00678197 0.214168 -0.0655623 0.0180755 -0.0605533 -0.413096 0.188555 -0.206153 0.022079 0.336988 -0.0757763 0.0586048 0.0503132 -0.562884 -0.0638819 0.223606 0.269135 -0.0274307 -0.0388224 0.798787 0.0499339 -0.0522942 0.00603156 -0.126712 0.220051 0.0688316 -0.257373 0.034494 0.0714174 0.0404179 -0.0880238 0.117242 -0.0271853 -0.00798855 -0.029813 0.497485 -0.061181 0.0633144 0.498448 -0.152611 -0.123235 0.0833084 -0.00304073 0.0402461 0.364556 -0.421135 0.122847 -0.387874 0.107093 0.192993 -0.207796 -0.00550368 0.111088 0.265119 -0.309593 0.0147813 -0.235101 -0.206527 -0.000964296 -0.0352093 0.0647437 0.346245 0.172576 0.2622 -0.358132 0.229246 0.0812213 0.0439458 0.00290812 0.291569 0.381082 0.129397 -0.380617 -0.189834 -0.42181 -0.348097 0.189155 0.213575 -0.0278502 0.000700835 -0.0106266 0.170899 -0.0256136 -0.017041 -0.182104 -0.263361 -0.00389165 0.0170494 -0.203614 0.406389 -0.107633 0.0727671 0.190206 -0.0202303 -0.249844 0.3145 -0.139807 0.354011 0.211891 0.299362 -0.151727 0.0455479 -0.00946488 0.166365 0.146859 0.181009 -0.276099 0.203096 -0.198479 0.157251 -0.130884 -0.260465 0.123455 -0.063609 0.138515 0.041411 -0.208708 0.250209 -0.420347 0.098082 0.119131 -0.147515 -0.231888 -0.404925 0.167974 0.248399 0.299722 0.254411 0.119196 -0.174865 0.172179 0.118757 0.23837 -0.214462 -0.1514 -0.100377 0.223213 -0.0366513 -0.233765 -0.345239 -0.137399 -0.0818075 0.102916 -0.299936 0.13952 0.0426489 -0.0440483 -0.511274 0.162621 -0.320281 0.112145 -0.00253464 0.116291 -0.235431 0.0150307 -0.190785 -0.342354 -0.32588 -0.147339 -0.418046 -0.272126 -0.0406732 -0.217464 0.0852485 0.0966862 -0.206029 -0.0455916 -0.179594 0.438188 0.489656 0.131838 -0.353154 0.0763745 -0.112756 0.086372 0.227572 0.187151 -0.103615 -0.390296
o 0.03263 -0.198049 0.136951 -0.0298471 -0.00450492 -0.0167971 -0.103078 0.319785 0.0829294 -0.965299 0.12628 -0.280629 -0.216265 -0.0548336 0.330671 -0.169188 0.16953 -0.996445 0.0899202 -0.0908164 0.0840728 -0.0645403 0.036932 0.0646585 -0.104581 0.0996395 0.314844 -0.0166523 0.0705114 -0.133489 0.240294 -0.0252195 0.136621 -0.182612 -0.154703 0.155574 0.113032 -0.179871 0.151607 0.074777 -0.286312 -0.0482182 -0.113205 0.067348 0.305588 -0.301819 0.240287 -0.230079 0.0662917 -0.0456715 -0.068245 -0.0164279 0.177658 0.196567 0.119539 0.0634931 -0.0227343 -0.168859 0.125454 -0.081034 -0.110747 0.0631434 0.0211973 -0.271638 -0.0712512 -0.0188062 -0.0366785 -0.107082 0.0528706 -0.301645 0.2676 -0.0389233 -0.0470191 -0.0827119 0.0182178 0.0113857 0.0958126 -0.142234 0.0216568 0.0394874 0.161768 0.0825156 0.171871 -0.0822753 0.112965 0.0591405 0.067003 0.153713 -0.210569 0.187844 -0.0168761 -0.024109 -0.271725 -0.110883 -0.366545 0.315118 0.145556 -0.161163 0.269172 0.0983842 -0.177612 0.142247 0.179401 0.0953074 -0.308688 -0.506289 0.285815 0.0277017 -0.117774 -0.249187 -0.000358077 0.261094 -0.0643554 -0.182066 0.15094 0.0107242 0.0630704 -0.00241214 -0.103205 0.144966 -0.24093 -0.018748 0.023554 0.000535674 0.0881273 -0.207526 -0.0531763 -0.0392242 0.00258108 -0.0664919 -0.206861 -0.0952143 0.00340621 0.144389 0.166176 -0.029278 0.152888 -0.0480296 0.044039 0.0332831 0.298786 0.229989 0.11415 -0.225445 -0.241104 0.00142861 0.147944 -0.144747 -0.00973093 0.236359 0.0434736 -0.166132 0.392646 -0.0234788 0.0485973 -0.0751477 0.0755908 0.126333 0.105463 -0.149397 0.198217 -0.00990856 -0.0596577 0.305118 -0.0943808 0.304028 -0.118029 0.0677092 -0.11437 0.0458223 -0.107694 -0.0294014 -0.15892 0.0564096 -0.103771 -0.207982 0.0232766 0.0791545 -0.154184 -0.0113662 0.218517 -0.199793 -0.0988886 0.178849 0.289297 -0.124526 0.28763 -0.0467357 0.269672 0.0442406 0.10301 -0.366497 -0.220419 0.0433157 0.119845 0.10529 -0.0249565 0.190341 -0.0160849 -0.24135 0.0633701 0.0284169 0.0647676 0.21781 -0.0281453 -0.0645772 -0.0937376 0.0264604 0.0839036 0.345654 -0.144129 0.213602 0.0353564 0.169619 -0.296435 0.133219 0.0787514 0.100585 0.500031 0.164671 -0.150093 -0.284645 0.00851571 0.219687 0.055861 0.064752 -0.155847 -0.139423 0.0611622 -0.138562 -0.22065 -0.136882 -0.228468 0.198529 0.0438896 -0.122519 -0.197492 -0.10975 0.283687 0.0517676 0.105715 -0.207478 -0.0571925 -0.0988659 -0.0303942 -0.0814077 0.0603111 0.156911 -0.0456494 0.27501 0.00928148 -0.135215 -0.168607 -0.120941 -0.0940716 -0.286322 -0.166381 0.0896676 -0.0624924 -0.268043 -0.142168 -0.248664 -0.110209 -0.0257934 -0.0621609 0.339869 -0.0706743 -0.0981782 -0.564389 0.16648 -0.147206 0.0661493 0.0285622 0.208294 -0.218617 0.0889363 -0.149435 0.0249493 -0.116555 0.0124793 -0.236001 -0.0290638 -0.20438 -0.0662829 -0.0989341 -0.0974033 0.00139505 0.0560707 -0.0542178 -0.258872 0.200468 -0.357308 -0.153917 0.0105093 -0.138168 -0.16822 0.179688 0.137051 0.10082 -0.114206
i 0.315118 -0.194888 -0.106185 0.399666 0.111958 -0.0266824 0.333846 0.181474 -0.06485 -0.945529 0.032739 -0.200394 -0.166566 0.0790137 0.289893 0.0658432 -0.0967318 -1.10814 -0.137787 0.26547 -0.184423 0.118472 -0.328706 0.0979517 -0.279085 -0.045333 0.0841331 -0.262138 0.0911083 -0.157725 0.187271 -0.109564 0.0519614 -0.211293 -0.298974 0.227995 0.331239 -0.0284657 -0.00335967 -0.110978 -0.182307 0.229881 -0.243977 0.242082 -0.0309073 -0.201728 0.00464637 -0.0849722 0.15941 0.0547659 0.112978 -0.33653 0.0685544 0.0802985 0.111602 0.216085 0.0688906 -0.156201 -0.0185842 0.155149 0.0600158 -0.102318 0.0381572 -0.422425 0.224897 0.348546 -0.332876 -0.0854533 0.0086534 -0.0807282 -0.154929 0.145362 -0.465001 -0.195198 -0.0793125 -0.088495 -0.182678 -0.0595129 -0.103471 -0.0626643 -0.101669 -0.156593 -0.135444 0.332772 -0.25263 0.0409849 0.170206 -0.192404 -0.104022 -0.0391379 0.0712972 -0.0664537 -0.365074 0.00177059 -0.145317 0.170236 0.20812 -0.0666499 0.0597194 0.0859742 0.198767 -0.194409 -0.0294474 0.119935 0.174462 -0.754495 -0.0166906 -0.38728 -0.000466764 -0.147013 -0.270307 0.210511 -0.171951 -0.168654 -0.130213 -0.0246165 0.14529 -0.0845106 0.139153 0.114518 -0.28373 -0.118762 0.22549 -0.0772575 0.0979658 -0.082814 -0.185345 0.153512 0.0939334 -0.0403678 -0.125036 -0.156152 -0.012777 0.208591 -0.189739 0.245523 -0.0723928 -0.0765258 0.0744587 -0.222038 0.763308 -0.0363269 0.030647 -0.229542 -0.17993 -0.315128 0.175175 0.256983 -0.0175775 0.275679 -0.0251663 -0.1271 0.14466 -0.027372 0.379621 0.128368 -0.00632908 -0.181528 -0.0789961 0.103475 -0.0226894 -0.158417 0.212613 0.319065 0.215753 -0.0141561 -0.0592237 0.289586 -0.0640098 0.31015 -0.0365294 -0.015468 0.159444 0.185906 0.1008 -0.158896 0.120466 0.124751 -0.390463 -0.251686 -0.197392 -0.0362771 0.212511 0.0894133 0.0531159 0.0788771 0.140556 -0.0292637 0.0335905 0.205588 0.191012 0.00353969 0.167493 0.211498 -0.0979891 0.0597665 0.285034 0.120406 0.196153 -0.109347 -0.0835259 0.118805 0.247285 0.0515751 -0.139959 0.0676471 -0.0985784 0.364498 0.125686 0.0425329 -0.154708 0.0877508 -0.273921 0.25014 -0.115438 -0.287548 0.0442916 0.318534 0.289668 0.100948 -0.0851599 -0.0411322 0.293729 0.190876 0.224382 0.179725 0.135721 0.126807 -0.126513 0.192521 -0.117995 0.150317 -0.324527 -0.0853502 -0.00810679 0.109197 0.325302 0.169514 0.230675 0.0429429 -0.12536 -0.116082 0.129293 0.0199593 -0.0483896 0.127734 -0.033858 0.24547 0.224313 -0.0886457 -0.0178661 0.232056 -0.44026 0.0660958 -0.00959362 -0.197395 -0.204684 -0.0148652 0.000769943 0.187324 -0.310319 -0.180467 0.0306257 -0.0943395 -0.0206834 0.1421 -0.101547 -0.0743218 -0.393276 -0.169392 0.0775916 0.197213 -0.140968 0.336205 -0.221488 -0.0473175 0.0182749 0.0942729 0.321991 0.092176 -0.0280198 -0.0794545 0.0309331 -0.0904776 0.11434 0.287766 0.200515 -0.064825 0.0858123 -0.0154623 -0.0316231 -0.238933 -0.0140678 0.124269 0.194314 -0.0172931 0.0253024 0.303144 -0.0103084 0.0593173
z -0.0643207 -0.113394 -0.174918 0.351298 -0.233671 0.125906 0.0637483 -0.0411032 -0.342783 -1.39831 0.22419 -0.045622 -0.240355 0.480637 0.238413 -0.377948 0.375227 -1.34997 0.321516 0.136706 -0.252205 0.0603271 0.0528632 -0.340928 -0.259769 0.0845208 0.185567 0.146144 -0.0382612 0.246484 0.0377442 -0.567506 -0.004562 -0.172323 -0.240139 0.0308636 -0.364165 0.0788069 -0.135127 -0.22752 0.267078 -0.4143 -0.137659 -0.164955 0.0896877 -0.0467838 -0.0983885 -0.063178 0.0563677 0.172477 0.0332808 0.0495218 0.00691918 0.350485 0.1697 0.0968402 -0.0361356 -0.0138036 -0.155212 0.306551 0.329914 0.266743 -0.187632 -0.171631 0.120537 -0.0704159 -0.332022 -0.298592 0.201719 -0.0886569 0.153224 -0.203929 -0.0812126 -0.12992 -0.180929 -0.428757 -0.135006 0.324337 -0.27207 0.139964 0.180442 0.281592 0.317672 0.178559 -0.239727 0.291137 0.581628 -0.312576 0.103031 -0.0679244 -0.0912898 0.0324352 0.0121174 0.261565 0.0812931 0.720729 -0.47878 -0.146988 -0.224679 -0.0359036 0.538116 0.405808 -0.147275 0.378885 0.14714 -0.465243 -0.104894 -0.385622 -0.1613 0.119076 -0.142485 0.0869228 -0.445611 -0.265302 -0.140551 -0.224685 0.0743655 -0.25819 0.157929 0.295067 0.0872805 0.103419 0.354252 0.144721 -0.0955039 -0.070437 -0.218176 -0.263711 0.198376 0.326964 -0.419465 -0.043139 0.232025 -0.0914144 -0.0525968 0.320863 0.00135745 -0.238893 -0.0586902 0.00123981 0.655636 -0.152767 -0.589681 -0.016417 0.245399 0.322115 0.138913 0.246557 0.113845 0.414699 0.108693 -0.33108 0.199112 -0.300032 -0.00575166 0.178952 0.0518311 -0.0583925 0.12593 -0.312613 0.204435 -0.045555 -0.0652833 0.0545077 0.56497 0.0466235 -0.287544 0.376356 0.263144 -0.275951 0.128267 0.253305 0.0451502 0.0702296 -0.124097 -0.179566 -0.159038 -0.0271909 -0.381293 0.00796656 0.0256228 -0.005321 0.145147 -0.10563 0.139838 0.0700185 0.245084 -0.313101 -0.0823575 -0.0406254 0.326726 0.0579145 0.54044 -0.351972 0.183173 0.136233 0.34861 0.225811 0.330931 -0.841829 -0.497046 0.0259762 -0.217916 -0.228509 -0.144214 -0.0076264 0.0831584 0.202458 0.0577866 0.0628271 0.258466 0.243034 0.148208 0.21918 -0.113358 -0.222786 -0.30767 0.0423804 0.540566 -0.0598233 0.0610341 -0.00679448 0.614412 -0.371438 -0.331851 -0.376737 0.243013 -0.219338 -0.0388791 -0.371599 -0.223788 -0.0376031 -0.117805 -0.652094 -0.160077 0.287505 -0.309182 0.0350845 0.0974991 -0.145658 -0.21361 0.046137 -0.00580024 -0.0374183 0.0102967 -0.169725 0.285312 -0.0778329 0.236131 0.0383962 0.252529 -0.279481 0.091689 -0.185942 0.0919928 -0.327612 -0.173847 -0.163227 -0.266776 -0.633331 0.241994 -0.281318 0.23379 -0.465677 -0.078373 0.168644 -0.0699954 -0.116219 -0.637456 -0.225467 -0.292908 -0.461514 0.121564 0.302103 0.0308911 -0.318588 -0.0925748 -0.127109 0.109126 0.0565153 0.0349118 -0.54464 -0.129496 -0.00944281 -0.192054 0.237284 0.195632 0.140866 -0.0681502 -0.00123997 0.255085 -0.180699 0.0733165 0.11779 0.189421 -0.0562599 -0.357702 0.258449 -0.0706191 0.207871
6 0.230416 -0.133024 0.190532 -0.0933049 -0.45802 0.447372 0.229474 -0.0285937 0.0185294 -1.51168 0.281787 0.0765727 -0.129043 0.0158423 0.16833 0.0749822 0.245345 -1.13865 0.0829461 0.148213 -0.0492038 0.138079 0.471164 0.0380931 0.0308276 0.0936963 0.192089 -0.194175 -0.0707642 0.229632 0.0756977 0.159986 0.0528613 0.206705 -0.2306 -0.0805189 -0.196913 0.135639 0.164741 0.621709 -0.189369 -0.425499 -0.0818517 0.378651 0.141982 0.0210431 0.144209 0.10679 -0.162868 0.251904 0.142238 0.503512 -0.18996 0.0855169 -0.0166912 0.0546766 0.0812593 0.0947676 0.147343 0.277069 0.00579605 -0.240152 0.0332742 -0.531574 -0.240057 0.0867777 0.120151 -0.215295 -0.224855 -0.210281 -0.0995274 -0.248138 -0.31447 0.0617528 0.207807 0.0587174 0.12322 0.382251 0.274058 -0.0730762 -0.165689 -0.108339 0.144483 -0.141023 -0.0280126 0.410578 0.941359 -0.124702 -0.415556 -0.189237 0.292253 -0.253984 0.13505 0.331601 0.170007 0.293633 -0.308237 -0.209954 -0.239261 0.239267 0.0445834 -0.0876727 0.352101 0.270288 -0.0274731 -0.507068 0.0892413 -0.197927 -0.152537 0.161633 -0.105122 0.18376 -0.207295 0.172391 -0.0225691 0.377688 -0.227326 -0.129809 -0.0118586 -0.272503 -0.0804473 0.233064 -0.338723 0.0232027 0.0465083 -0.174589 0.0472205 0.136218 0.202194 0.131519 -0.0383186 -0.0138685 0.323218 -0.0887366 -0.36163 0.048637 0.0140396 0.194721 -0.246306 0.0579999 1.03262 0.00835866 -0.32848 0.0470524 -0.0238851 0.174213 0.173807 -0.0629111 -0.210509 0.24502 -0.112912 -0.154715 -0.116254 -0.186529 0.107049 0.256278 0.203051 -0.19936 -0.123456 0.301806 -0.0749917 -0.00840768 0.199347 0.122113 0.150793 0.302645 -0.0584175 0.179619 -0.324563 -0.0439433 0.126848 0.0380971 0.164229 0.1093 -0.124987 -0.0191593 -0.166238 -0.262162 -0.449572 -0.0884739 -0.165065 0.122936 0.131711 0.0455818 0.31028 0.0350752 0.1666 0.124714 -0.245828 -0.0355129 0.457925 0.323807 0.0923986 -0.417298 -0.0447222 -0.176646 -0.190188 0.223222 0.339364 0.0397422 0.103833 0.0249692 0.0700873 -0.085544 -0.162966 -0.235408 -0.090303 0.175947 -0.128275 0.024309 0.470414 -0.0278006 -0.016178 0.35035 -0.0241613 -0.278015 0.190535 0.0394824 0.160337 -0.0364447 0.319102 -0.269869 0.316334 -0.383643 -0.213706 -0.410659 0.248939 -0.341321 -0.0660873 -0.409885 0.119007 0.283617 -0.148202 -0.0196015 -0.182933 0.196764 -0.138065 0.161426 0.13713 -0.157559 0.0849219 -0.111479 -0.206191 -0.279246 -0.375334 0.242496 0.321012 0.0607827 0.550122 0.14583 -0.199287 0.156231 -0.0389517 0.473292 0.19865 -0.624975 -0.101412 0.2712 0.0382262 0.0656371 -0.193026 -0.304356 -0.0974569 -0.0250107 -0.365074 0.0530979 0.0109695 -0.0605233 -0.446236 0.257227 -0.223092 0.00516244 0.181812 0.388235 -0.115306 0.143069 0.0291253 -0.242034 -0.347751 -0.193638 -0.396813 -0.143456 0.149846 -0.293433 0.19677 0.168826 -0.22577 0.28621 0.00972302 0.415859 0.453832 0.00734662 -0.370104 0.299681 -0.138214 -0.124936 0.0071513 0.331726 -0.151781 -0.0871788
3 0.318152 -0.104689 0.223469 -0.141106 -0.396239 0.0642667 0.21302 -0.119709 -0.0215547 -1.56287 0.295046 0.18907 -0.160083 0.22875 -0.0309626 -0.152252 0.0593735 -0.965657 0.436342 0.212421 -0.0791054 0.0821712 0.337106 0.0853144 -0.0710453 0.339108 0.15648 -0.208133 -0.064111 0.204669 -0.0370944 -0.128225 -0.293653 0.00392271 -0.342176 0.023219 -0.125513 0.0747006 -0.135489 0.473163 -0.093407 -0.366603 -0.231299 0.344145 -0.0644345 -0.0831392 0.198891 0.202045 -0.122594 0.32401 -0.173904 0.2494 -0.235866 0.063365 0.0472496 0.090336 -0.0300555 0.138868 -0.0394375 0.305004 -0.026032 -0.127756 0.0550246 -0.581001 -0.46943 0.208998 -0.0254215 -0.03086 -0.266055 -0.50234 -0.0574565 -0.245711 -0.22986 -0.103664 0.0503124 -0.016466 -0.034952 0.34122 -0.0895213 -0.244372 -0.00414791 -0.0713383 0.156687 -0.0516739 -0.0950757 0.345421 0.58622 -0.0598989 -0.379984 -0.132962 0.217529 -0.263091 0.129368 0.179841 0.0429052 0.132626 -0.279709 -0.0980237 -0.284695 -0.163299 -0.0462517 -0.0380373 0.155032 0.112306 -0.249749 -0.310336 -0.0289646 -0.126222 -0.165386 0.00431424 -0.178456 0.174955 -0.146435 0.0623367 -0.0311089 0.249497 -0.17743 -0.197531 0.131087 -0.361687 -0.228744 0.0574979 0.114953 0.0888588 0.0161585 -0.0639806 -0.271062 0.140885 0.224815 0.153217 0.15025 0.171 0.173243 -0.0680954 -0.401913 0.0851897 0.0704115 0.214113 -0.102125 -0.0930427 0.997575 0.146191 -0.282909 0.0351637 -0.0399973 0.242199 -0.120215 -0.253519 0.10163 0.185011 -0.154521 -0.025104 0.140607 -0.069752 0.0849922 0.126378 0.259314 0.0582658 0.0304781 0.371489 0.0290132 -0.122286 0.209695 -0.0325292 0.164945 0.222385 -0.316959 0.127712 -0.398195 -0.0871012 0.135749 0.0665799 -0.0160796 0.197518 0.344425 -0.248907 0.0662848 -0.142626 -0.127354 0.133439 -0.0862279 0.344622 0.163126 0.144812 0.299559 -0.147004 0.330471 0.189764 -0.0698436 0.00203669 0.478646 0.295606 0.379696 -0.317343 -0.292799 -0.39 -0.174822 0.201976 0.0805598 -0.153841 -0.0875763 0.0472224 0.0657531 -0.296895 -0.109429 -0.0533311 -0.220383 0.161247 -0.0215093 -0.0439088 0.271901 -0.155722 -0.153972 0.271479 0.0620649 -0.406459 0.067851 0.0067051 0.468432 0.140004 0.317179 -0.0521913 0.202881 -0.153097 0.074233 -0.11066 0.33454 -0.419883 -0.0245362 -0.417751 0.199495 -0.171153 -0.321435 -0.0870192 0.0562783 0.26119 0.018574 -0.0460677 0.254353 -0.39252 -0.0299482 -0.17232 -0.119436 -0.310329 -0.267022 0.231379 0.10466 0.230093 0.494573 0.134988 -0.100538 0.0648155 0.193775 0.191072 0.0132785 -0.444236 0.0450088 0.13815 0.014511 -0.0250048 -0.233836 -0.228457 -0.058111 -0.126614 -0.381559 -0.0395952 -0.0578301 -0.259731 -0.7018 0.109402 -0.310676 0.130426 0.114461 0.0399627 -0.1337 -0.160863 -0.219006 -0.238689 -0.242717 -0.231542 -0.375219 -0.0708832 -0.11953 -0.123938 0.180225 0.303438 -0.238159 0.164845 -0.190513 0.33039 0.519909 -0.101997 -0.235887 -0.023828 -0.165742 0.0420004 0.133775 0.274424 -0.0344785 -0.0674269
