k -0.819579 -0.71858 0.352353 0.255918 -0.401944 0.499743 0.221225 -0.093348 -0.184877 1.091246 -0.644403 -0.194024 0.891006 0.184979 -0.146353 0.157545 0.523932 0.482344 -0.369292 -0.389401 -0.51486 -0.24914 0.26734 -0.143465 0.915688 0.008752 -0.32538 -0.219399 -0.493943 0.148006
m -0.123944 0.54337 0.232947 -0.686711 0.620855 -0.368448 -0.005695 1.60888 0.500354 0.765054 -0.591314 0.420165 0.09835 0.444782 1.00773 -0.201034 0.077607 -0.156354 0.509671 -0.217992 -0.669739 0.108817 0.358222 -0.229624 0.490528 -0.153516 -0.029816 0.083494 0.125715 -0.356223
? 0.104215 0.45863 -0.258378 0.306554 -0.622084 -0.439113 -0.022372 -0.11137 0.608633 -1.078045 0.168115 -0.051885 -0.018434 -0.038136 0.427196 -0.339296 -0.199135 -0.235258 0.379827 -0.346359 -0.136801 -0.364114 0.513371 -0.161249 -0.077014 -0.402131 0.131083 -0.417965 0.015573 -0.072013
y -0.312532 -0.82656 1.199511 0.148708 0.422146 -0.425488 0.061861 0.435961 -0.515042 0.574484 -0.494466 -0.277052 -0.06827 0.045679 -0.400984 -0.477243 0.42571 0.259928 -0.274227 0.250813 0.166709 0.439587 -0.762471 0.04839 -0.402852 0.245318 0.05449 -0.283554 0.22506 -0.452768
+ 0.360433 0.187029 -0.830981 0.016695 0.787139 0.381362 1.100887 -0.746343 0.310078 2.004687 0.191379 0.475812 -0.368821 -0.068417 -0.347867 -0.545157 -0.50506 -0.03086 0.734309 0.137719 -0.639153 0.146955 0.511278 -0.309307 -0.739576 -0.505638 0.385233 -0.72152 -0.453031 0.462517
} 0.478283 0.846112 0.109741 -1.185311 -0.739158 0.723005 -0.992346 -0.391143 0.300826 0.857726 0.117851 0.589139 0.517743 -0.053011 -0.376326 0.035751 0.362144 0.47166 -0.012114 -0.061073 -0.5993 -0.231434 -0.018652 -0.025912 -0.175925 0.093082 -0.337722 0.078757 0.218936 0.281983
% 0.722624 -1.271239 -0.808968 -0.833457 1.773297 -0.051712 0.084558 -0.124538 -0.309393 -0.444017 0.659075 0.233246 -0.057599 0.041058 1.101395 1.375587 0.968174 0.377956 -0.444837 0.267598 -0.683439 -0.108222 -0.927175 0.108372 0.074305 0.028738 0.514189 -0.391851 -0.566906 0.014281
^ -1.790643 0.527086 -1.155109 1.245692 -0.517014 0.903776 -0.079988 1.176407 -0.852032 -0.015841 -0.829147 -0.487647 -0.504091 -0.644868 0.405859 0.939565 -1.097297 0.019753 0.648756 -0.594246 -0.079345 -0.215089 -0.092941 0.02873 -0.793697 -0.013874 -0.857417 0.394517 0.034758 0.007235
! -0.569275 0.418131 0.70127 -0.094476 0.135935 -0.235373 0.959601 0.411324 -0.240261 -0.461469 -0.530035 -0.533423 -0.01794 -0.014843 -0.088335 -0.19756 0.625976 0.337981 0.049749 0.284209 0.310367 -0.153507 0.43872 0.156766 -0.05508 -0.56621 -0.791216 -0.60284 0.406953 -0.326013
. 0.848238 -0.034279 0.577346 -0.314801 0.422996 -0.364161 -1.047626 -1.15898 0.744246 0.112141 -0.882256 -0.194316 0.148368 0.089225 1.306219 0.081208 0.190729 0.461342 0.636781 -0.242197 -0.374775 0.410085 0.973655 0.656306 0.028844 -0.009048 0.046117 0.38095 0.238152 0.336921
G 0.311097 -0.034548 -0.798292 -0.246717 0.349683 0.752273 0.400366 0.263713 0.14911 0.140532 -0.607954 -0.033791 0.919977 -0.212229 0.391966 -0.60428 0.670998 -0.364079 0.261694 -0.271785 0.614459 0.100451 -0.437212 0.374161 -0.376475 0.175161 0.267438 0.26382 0.409247 0.112836
( -0.303665 0.211603 -0.217218 -0.172735 -0.019237 -0.122778 0.478788 0.801336 -0.076023 -0.179892 -0.352118 0.466499 0.152579 -0.177442 -0.734453 -0.011377 -0.040184 0.03207 0.06059 0.021988 0.224024 0.14386 -0.060384 -0.191272 0.17907 -0.01599 0.000121 -0.130409 0.174686 -0.065436
) -0.363021 1.153832 -0.326983 -0.821231 -0.308055 0.512601 0.068282 -0.135633 0.556343 -0.151 -0.167239 -0.312857 -0.192939 0.061062 0.258018 0.440118 0.245721 -0.358176 -0.393725 0.113585 -0.004912 -0.079967 -0.352932 0.110457 0.024349 -0.324174 -0.294566 0.229775 -0.409805 0.03637
8 0.104577 0.218469 -0.421605 -0.480274 -0.060231 0.304307 0.199365 -0.088883 0.403166 0.190456 -0.336854 -0.12529 0.548021 0.254933 0.115143 -0.265336 -0.231455 -0.041608 -0.308622 0.027783 -0.008536 0.005641 0.127012 -0.11696 -0.386258 0.067234 0.097658 -0.01268 0.015763 -0.177143
D 0.689507 -0.10537 0.552243 0.189495 0.436707 -0.06415 -1.035391 -0.281527 0.918311 -0.045634 0.366347 -0.962956 -1.246509 -0.05952 -0.128302 -0.442589 0.276269 0.400788 0.184363 -0.46238 0.742057 -0.361112 0.180194 0.05934 -0.180324 -0.424463 -0.468298 -0.202087 -0.598247 0.375585
W -0.764565 -0.723468 -0.585756 0.136499 -0.527591 -0.418873 -0.497489 -1.474166 -0.24984 0.067221 -0.853315 0.586978 0.882705 -0.487182 0.329436 0.363606 -0.0766 -0.450561 0.404513 0.259378 0.008493 0.603689 0.261759 -0.115502 0.341215 0.000166 0.106706 -0.062632 -0.088927 -0.478493
t -0.052304 -0.00743 0.681692 0.30707 -0.039403 0.150001 0.222579 -0.203602 -0.60741 -0.459189 -0.204227 0.347724 -0.213808 -0.33256 -0.163463 0.063633 0.730463 0.270108 0.541292 -0.134183 -0.15197 0.467303 0.578498 -0.044077 0.716391 0.136416 0.144388 -0.277561 0.183153 -0.207852
b -0.328286 -0.37459 -0.689022 -0.841601 -0.228707 0.092171 0.741413 -0.30007 1.431628 -1.215801 0.61706 -0.251689 -0.489921 -0.327862 0.087273 0.375292 -0.14206 0.875977 -0.648429 -0.203912 -0.290361 0.008696 0.53846 -0.17506 -0.631007 0.100181 0.290692 0.39125 0.671148 -0.353923
o 0.118242 0.336513 0.561956 0.374364 0.295 0.380629 -0.023915 -0.624009 -0.436968 -0.392324 -0.730385 -0.0328 -0.695623 0.578739 -0.417997 0.415685 -0.085145 -0.139414 -0.27978 0.038273 -0.074654 0.549883 -0.772522 -0.339582 -0.016012 -0.385811 0.597386 0.420179 0.255846 0.550764
N 0.354043 -0.170923 -0.151697 0.072296 -0.411458 -0.015292 0.014073 0.789085 -0.238397 0.066602 0.953002 0.257704 -0.040527 -0.599424 -0.193573 0.293333 -0.087936 0.254594 0.233091 0.343712 -0.547858 0.453591 0.479462 0.103035 -0.554986 0.416437 -0.240651 0.091856 -0.583975 -0.026382
v -1.060881 -0.968054 -0.04241 0.083561 -0.292138 0.947325 -0.232197 1.131669 0.615897 -0.041872 0.843355 -0.08656 0.684681 0.87101 -0.729085 -0.225981 0.642891 0.369538 0.561623 -0.208339 0.034847 -0.194685 0.158999 0.02998 0.045937 -0.178844 0.379219 -0.00047 -0.410938 -0.086852
B -0.455469 -0.707168 -0.832877 -0.15763 0.639646 -0.330123 -0.489851 -0.12484 0.212306 -0.045189 0.370051 0.052633 -0.145179 -0.399177 0.170293 0.111272 0.278795 -0.406369 -0.203314 0.172606 0.570911 -0.694525 -0.623634 0.108044 -0.152629 -0.437254 -0.536263 -0.064939 0.078004 -0.04346
Q 0.778033 1.886929 0.468669 -0.001007 -0.305194 0.12248 -0.296885 -0.273987 -0.512094 0.085801 -0.255582 0.595062 0.420127 -0.770234 0.281536 0.319415 -0.532547 -0.339888 -0.072245 -0.303821 0.336984 0.407911 -0.007238 0.001122 0.384555 0.096024 0.265915 -0.129725 0.209673 0.369486
5 -0.34191 -0.434619 -0.110965 -0.501392 0.309483 -0.330245 -0.138816 -0.227583 -0.338678 -0.120602 -0.169301 0.191438 0.11756 -0.308879 -0.387868 0.103557 -0.456458 0.319025 0.106171 -0.170959 -0.020869 0.161933 0.094647 -0.157192 0.248794 -0.057565 -0.152415 -0.138748 -0.014581 -0.131117
/ -0.18981 0.7208 -0.706916 0.025171 0.518646 -0.817471 -0.225213 -0.135909 -0.975213 0.131058 0.498851 0.520418 -0.517715 1.290348 -0.357834 -0.149434 -0.135894 0.067372 -0.247807 -0.113967 0.3794 -0.047424 0.204772 0.843031 -0.296158 0.241198 0.079775 0.339305 0.49435 -0.241909
~ -1.80609 1.074754 0.4468 1.362913 -0.188929 1.59431 0.530492 -0.26316 0.237968 0.227657 0.226908 -0.957931 -0.213704 -0.485054 0.39432 -0.000967 0.369621 -0.08467 0.050173 1.072633 0.267694 0.244482 -0.073035 -0.020295 0.285804 0.577592 0.940075 0.018218 0.108372 -0.052184
M -0.452926 0.496795 -0.567368 -0.681993 0.925598 0.183269 -0.572051 1.015267 0.07488 0.84961 0.535661 -0.073445 0.018528 -0.247319 -0.03044 0.045804 0.287025 0.080341 0.104717 0.059029 -0.49099 -0.158859 0.164445 0.195914 0.0717 0.282449 -0.291837 0.217469 0.298859 -0.477811
& -0.039198 0.133288 0.247802 0.125203 0.155364 -0.055571 -0.010296 -0.37671 0.486435 0.2727 0.242733 -0.195019 -0.0686 0.272407 0.233189 -0.160305 -0.294315 -0.409715 -0.579699 0.387634 -0.424466 0.161701 -0.35846 0.1606 -0.24811 -0.183902 -0.342747 0.054442 -0.141202 0.27648
6 -0.616939 -0.099539 -0.583533 -0.551868 0.350364 -0.121797 0.246287 -0.08752 0.06344 -0.612656 -0.061083 0.259873 -0.076188 -0.414024 -0.175171 -0.301188 -0.371244 0.173609 0.221462 -0.193621 -0.339322 0.091539 0.160856 0.311818 0.133029 0.047482 -0.107383 0.141685 -0.093367 -0.248099
| 1.599335 -0.814236 -1.707672 0.110107 -1.032682 -0.628981 -0.438956 1.155627 -0.15329 -0.011939 -0.736276 -0.957518 -0.334673 0.031939 -0.825692 -0.605923 0.680678 -0.94557 -0.422887 -0.18822 -0.008246 0.157057 0.269759 0.360318 0.041032 0.534247 0.486352 -0.139379 -0.29851 -0.028218
1 -0.351936 -0.048341 -0.644711 0.860058 0.525888 0.205639 0.323678 -0.269836 -0.290658 1.069933 0.013154 0.109119 -0.179856 -0.034791 -0.136028 0.095713 0.215061 -0.045208 -0.2176 -0.180636 0.16894 -0.102 -0.078624 -0.153728 -0.16179 -0.085571 0.147307 0.341883 -0.409278 -0.23755
0 0.262389 0.878866 -0.220885 0.053572 0.279502 0.532345 -0.193148 0.067975 -0.056293 0.28841 -0.289986 0.365866 -0.168184 0.377639 0.355504 -0.272504 0.045211 -0.055859 -0.074717 0.037118 0.398587 -0.217943 -0.144814 -0.390245 -0.335683 -0.290701 0.371042 0.083717 -0.058341 -0.336053
Y -0.133582 0.040357 0.500686 0.088066 -0.129654 -0.276671 -0.412141 0.946182 -0.71632 0.304576 -0.21099 -0.068034 -0.104273 -0.182916 -0.395216 -0.466021 0.017466 0.62383 0.418684 -0.166898 0.178429 -0.024355 -0.378411 0.408118 0.156746 -0.470556 0.34195 -0.129488 0.22056 0.107883
$ 1.999502 -1.491687 0.468491 0.154488 0.188614 1.804157 -0.506331 0.023062 0.302842 0.047157 0.261945 -0.181506 0.869287 -0.238809 0.318525 -0.368122 -1.254267 1.593095 0.20398 0.787683 0.867176 0.262068 -0.352856 -0.084158 0.115263 -0.115307 -0.25629 -0.020962 0.264361 -0.11885
E 1.24472 0.155736 -0.460889 0.559615 -0.031452 -0.137757 0.456346 0.130219 -0.013801 -0.194087 -0.070312 -0.255782 -0.060724 1.20955 0.848329 0.437792 0.03908 0.461419 0.137909 -0.840962 -0.638163 0.210411 -0.603805 -0.434055 -0.092142 0.516382 -0.55392 -0.472679 0.129814 0.007202
V -0.584463 -0.404862 -0.864323 0.458106 -0.63387 0.362666 -0.172797 0.509094 -0.756063 0.256858 1.425718 0.094172 0.442485 0.441641 0.712503 -0.395111 0.137529 0.081435 -0.423999 -0.247326 0.624775 0.551356 0.374025 -0.345498 0.093622 0.02782 -0.075419 0.002615 0.193414 0.674985
S 1.124912 -0.128423 -0.210754 -0.007407 -0.231119 -0.426652 0.210661 -0.333886 -0.80982 -0.724062 -0.277574 -0.22265 -0.06327 -0.397702 0.234532 -0.303746 -0.863395 -0.018644 -0.613677 0.171734 -0.028205 -1.033216 0.067868 -0.5927 0.152963 0.174376 0.168042 -0.526078 0.197193 -0.26351
n -0.111199 -0.33139 0.515639 0.103223 -0.262372 -0.213334 -0.299486 0.386023 -0.227982 0.073891 0.64793 -0.089243 0.02099 0.422726 0.195966 0.632435 -0.380927 -0.335525 -0.517877 0.842174 -0.410065 1.211841 0.493867 -0.172173 -0.340499 0.162743 -0.270734 0.033808 -0.559206 -0.233864
F -0.210977 -0.368245 0.335743 -0.801583 -0.0081 -1.20138 0.718804 0.423025 0.415786 0.429178 -1.045813 0.383293 -0.540841 -0.467109 0.380332 0.06319 -0.014296 0.410686 0.432697 -0.14732 0.3447 0.014192 -0.432454 -0.050833 -0.088544 0.063625 0.257871 0.207822 -0.336361 -0.081016
s 0.457377 -0.112979 0.854139 -0.006505 -0.429077 0.0421 0.495887 -0.43705 -0.299268 -0.278848 -0.480926 -0.433909 0.19811 -0.339321 -0.062245 -0.176832 -0.97446 -0.393032 -0.734448 0.303464 -0.447396 -0.781043 0.549876 0.000543 -0.181035 0.222968 -0.029785 -0.478914 -0.370659 -0.129446
[ -0.093107 -0.003332 0.087788 -0.509906 0.344508 -0.278536 -0.602271 -0.165956 -1.290465 -0.32532 0.737852 0.056656 -0.06278 -0.656163 0.137706 0.062525 0.235967 0.280805 -0.568811 -0.445134 0.359269 -0.212802 0.046138 0.737035 -0.215016 0.061183 0.249154 -0.156552 -0.562836 0.358988
{ -0.0096 0.425355 -1.499538 -1.155552 -1.124178 -0.705705 0.731226 -0.468539 0.076321 0.209215 0.909577 -0.13879 -0.208042 0.840165 -0.287228 0.423602 -0.57699 -0.310369 0.225651 0.176104 0.863943 0.691719 -0.287396 -0.471908 1.105446 -0.42675 -0.427459 -0.22658 -0.025057 -0.285852
, 1.720484 -1.420571 0.802664 -0.608973 0.285728 2.092224 0.702689 0.446476 -0.079537 0.857691 0.545335 0.362764 -1.330987 -0.389207 -0.071931 0.665462 -0.200844 -1.045317 -0.285687 -0.53144 0.304935 -0.097638 0.7099 0.017263 0.583926 -0.043236 0.110114 0.332924 0.403194 -0.214227
T 0.697316 0.181493 -0.144912 0.509747 0.089554 0.218876 -0.100627 -0.233952 -0.382817 -0.910341 0.072165 0.500707 -0.539389 -0.827834 -0.383281 -0.240957 1.273413 0.257007 0.772182 -0.041189 -0.129679 0.322899 0.215429 -0.72588 0.192335 0.255542 -0.33857 -0.427429 0.156725 -0.359052
a 0.005859 -0.527567 0.367421 0.873504 0.270635 -0.24753 -0.083212 0.209421 0.179754 -0.139308 0.014477 -0.035231 -0.291086 -0.679457 -0.603044 0.670003 -0.092482 -0.349339 0.068822 0.102415 -0.731 0.310248 -0.071382 0.460049 0.042592 -0.720642 0.120127 0.139089 0.53592 0.29217
q 1.500846 0.923213 0.761781 0.606361 -1.321502 -0.124781 -0.616677 1.133744 -0.129226 0.439409 0.148635 -0.187383 0.006171 0.32907 -0.233451 0.605561 0.015535 0.11561 -0.135726 -0.277986 -0.551973 0.038403 -0.333538 -0.075972 0.363411 -0.42625 0.08346 0.391884 0.181148 0.005223
p -0.194221 -0.098193 0.857882 -0.921364 0.393777 0.225743 0.819198 0.226562 -0.447031 -0.079294 -0.437719 -0.409069 -0.451749 0.733063 -0.156558 -0.335369 0.046656 -0.134188 0.247237 0.859477 -0.259396 -0.293173 -0.307914 0.074635 -0.164104 0.514016 -0.080896 -0.101374 0.260746 -0.310176
H 0.418373 0.228125 0.35237 0.144186 -0.212712 -0.699362 -0.982895 0.365556 0.1247 0.707764 -0.815682 0.27117 0.641343 -0.054634 -0.3504 0.289711 -0.248914 0.193503 -0.829699 0.487728 0.28111 -0.239651 0.126862 -0.136043 0.069785 -0.488091 -0.002292 0.525828 -0.606043 -0.638757
r -0.349466 0.284561 0.449702 0.004477 -0.169499 0.048467 -0.527521 0.151826 0.193905 -0.441329 0.40547 -0.078907 0.06774 0.619129 0.349334 0.480943 -0.671142 -0.634324 0.634512 -0.09287 0.401969 -0.131135 0.253382 0.522641 0.145279 0.129872 0.627093 -0.550158 0.024837 0.167963
K -0.358947 -0.756518 -0.258631 0.167135 -1.046511 -0.039955 -0.822868 -0.918788 -0.248703 0.417024 -0.395068 0.961192 0.187868 -0.034734 -0.305913 -0.563078 0.252779 -0.156625 -0.588105 -0.225191 -0.430304 0.156576 -0.313522 0.053624 -0.264751 -0.168163 0.017523 -0.105601 0.384735 0.291776
j -0.936499 -0.22645 0.036888 -1.078544 0.170637 0.720511 0.123431 -0.354193 0.026641 0.054372 -0.279584 0.39591 0.177128 0.279404 -1.051472 0.875341 -0.117819 0.344524 -0.04794 -0.050105 0.009088 -1.044407 -0.084091 -0.207089 0.071697 0.432072 0.068059 -0.044992 0.000443 0.257012
Z 0.562956 -0.990544 -0.3579 0.052265 -0.252132 -0.62279 0.40546 0.193472 -0.648908 0.189085 0.509025 -1.230339 0.662177 0.584692 -0.042172 0.282012 -0.172121 -0.137876 0.233534 0.273564 -0.077544 -0.275871 0.355196 0.224295 -0.159947 0.399785 -0.076055 0.034128 0.327678 0.500764
O 0.218568 0.122661 -0.837741 0.406533 -0.330378 -0.424057 -0.981866 -1.169552 -0.615475 0.25832 -0.427182 -0.451723 -0.394611 0.289221 -0.392051 0.797949 0.370595 -0.003603 0.311808 0.292512 -0.032428 -0.231251 -0.116946 0.113446 0.04438 -0.091529 0.077547 -0.251639 0.299255 -0.126223
C 0.469211 0.64499 -0.42179 -0.568631 2.080733 0.25316 -0.504901 -0.311741 -0.312327 -0.355528 -0.170909 0.061398 0.177607 0.079389 -0.160693 -0.79562 -0.180531 -0.603943 0.38893 0.588029 0.115231 -0.108543 -0.104025 -0.292129 0.291812 -0.345907 -0.491081 0.221809 -0.214109 0.034391
R -0.060001 0.493506 -0.581564 -0.19762 -0.255934 0.425072 -0.663509 0.334562 0.390179 -0.394971 0.223878 -0.122272 0.554425 0.884691 0.180582 -0.003149 -0.543895 -0.227675 0.679552 0.140016 0.199509 -0.288461 -0.091425 0.570133 -0.176469 -0.312514 0.49015 -0.631467 0.022296 -0.376185
L -0.600142 -0.137809 -0.615766 -0.360328 -0.916024 -0.789789 -0.282623 -0.2783 0.809694 0.836478 0.455726 0.538154 -0.483283 -0.569531 0.719285 -0.210491 -0.161587 0.294528 0.532646 0.306178 0.055437 -0.566024 -0.316482 0.354839 0.417221 0.406686 -0.009931 -0.018042 -0.000307 0.020755
X -0.44554 -0.069306 0.373643 0.798811 -0.352828 0.754699 0.496813 -0.73064 -0.538834 0.148311 0.302098 -0.592575 -0.254632 0.158438 -0.290305 -0.084755 -0.257998 0.517547 -0.158069 -0.193758 -0.260863 0.4332 -0.743336 0.576177 0.286242 -0.170113 -0.495535 -0.21768 -0.151581 -0.336049
- 0.591701 -0.265144 -0.548542 0.381919 -0.32192 -0.872944 0.492699 -0.275241 -1.104353 1.252933 -0.026418 -0.352361 -0.32392 -0.384155 0.117987 -0.514961 0.026257 0.341617 -0.240948 -0.310359 0.10526 -0.234224 0.353 -0.377167 -0.47836 0.043057 -0.065457 -0.035518 0.361648 -0.024424
@ 0.010083 -0.784774 -0.290508 1.613364 0.898182 -0.919966 -0.011044 -0.037531 0.871814 -0.171844 0.26429 0.928395 0.193487 0.541428 -0.404828 -0.640817 -0.693095 0.227939 -0.146633 0.11235 -0.641171 0.30075 -0.173117 0.446604 0.393617 0.267226 0.155619 -0.014813 0.231719 -0.17433
e 0.17647 -0.069926 0.437266 0.821216 0.263379 0.062887 0.236874 -0.294326 0.068805 -0.654341 0.116327 0.009995 -0.408518 0.257069 0.67992 -0.464109 0.011886 -0.744351 -0.164205 -0.514305 -0.275986 0.701382 -0.435697 0.252644 -0.266802 -0.229058 -0.412126 -0.009026 -0.150466 -0.35307
] -1.31248 1.301565 0.895235 -1.024676 0.872431 -0.153604 -0.704158 0.449817 -0.778043 -0.639069 0.601203 -0.482469 0.37127 -0.548545 -0.223993 -0.354382 -0.583549 0.371592 -0.728049 -0.943407 -0.441094 0.408036 0.14623 -8e-06 0.221011 -0.275024 0.317629 -0.424239 -0.206457 0.039605
* 0.223321 0.798758 0.413588 -0.38888 -0.904492 0.189963 0.29892 -0.810077 -0.614329 -0.562564 -0.349644 -0.12408 -0.035731 0.882063 0.487621 0.014884 0.608594 0.588179 -0.00266 0.007926 0.30422 -0.347647 0.360836 0.117332 0.163488 0.661622 -0.328041 0.822273 -0.466632 0.032984
9 -0.083624 0.29026 -0.578852 -1.006591 0.605369 0.612721 -0.460636 0.072024 -0.074267 -0.345838 0.122658 -0.121923 0.136606 -0.279754 -0.275421 0.106873 0.042188 -0.248153 -0.260005 -0.070933 -0.074279 0.087671 0.24378 -0.112443 -0.240616 -0.193729 0.133208 0.123922 0.184005 -0.002155
: -0.443348 -0.743192 0.207492 -0.054631 -0.91836 -0.179723 -1.116067 1.278602 0.391553 -0.664787 -0.445498 -0.064893 0.087517 -0.305733 0.198725 0.169365 0.155812 -0.382794 0.386971 0.995837 -0.28914 -0.197569 -0.394793 -0.721642 -0.138368 0.172732 -0.097647 -0.440177 -0.023185 0.728553
u -0.431979 -0.793597 -0.749837 0.728274 0.335085 0.384627 0.353957 -0.05666 0.596738 -0.500944 -0.569195 -1.215235 0.504541 0.150206 0.325877 -0.392724 0.445532 -0.397218 -0.497591 0.008906 -0.595306 -0.505004 0.353643 -0.318281 0.559232 -0.78734 0.045228 0.42525 0.114399 0.009896
7 0.090708 0.395444 -0.54555 -0.378957 0.083721 -0.026665 0.725598 0.218338 0.456163 -0.085886 -0.183073 0.062232 0.048709 0.016626 -0.213016 0.074544 0.050592 0.335637 0.291553 -0.517994 0.178955 0.421962 0.048335 -0.208234 -0.506109 -0.285247 0.214538 0.07498 -0.184146 -0.044666
c -0.122356 -0.183316 0.429877 -0.156981 1.197589 -0.202999 -0.206532 -0.199488 0.104137 -0.174952 0.3201 -0.121187 0.178504 -0.070426 -0.57415 -0.624805 -0.324143 -1.068422 0.387727 0.29859 0.00411 0.303646 0.140454 -0.084418 0.257896 0.90007 -0.703552 0.456488 -0.131306 0.597702
i -0.373133 0.169878 0.598149 0.880513 0.629987 -0.702618 0.075496 -0.138126 0.692934 0.007579 0.152287 -0.353747 -0.573926 0.440683 -0.472472 0.049235 -0.565445 0.415749 -0.101601 -0.064743 -0.077634 -0.253129 0.268812 -0.334117 0.216037 0.492034 0.58774 0.295279 -0.225776 -0.285553
' 1.179412 1.230431 -0.596389 1.346069 -0.330566 0.192407 0.477115 0.299191 0.922597 -0.773054 0.665366 0.795341 0.552099 -0.807062 -0.429186 -0.502108 0.036773 0.260077 -0.160779 -0.567566 -0.259227 -0.43071 -0.663373 0.165045 0.353776 0.690711 -0.093203 0.226522 -0.317068 0.037097
U -0.353814 -0.085635 -0.980249 0.575614 0.668958 0.37126 0.240908 -0.152314 -0.209381 -0.244872 -0.357022 -0.277872 0.627182 0.045413 0.223828 -0.533194 -0.167688 0.10176 -0.350547 -0.339785 0.105803 -0.006865 -0.146817 -0.437327 0.355285 -0.282983 0.160128 0.326422 -0.000785 0.485504
f -0.188887 -1.506203 0.609582 -0.784067 -0.15539 -0.795291 1.39535 0.303488 0.123714 -0.495393 -1.093465 0.004842 -0.135934 0.156685 -0.208216 0.361886 -0.749152 0.080683 0.514847 -0.780552 0.313779 0.234043 -0.293673 0.046288 0.242313 -0.021062 0.171205 0.28822 -0.394488 0.624165
h -0.298734 -0.190583 0.807025 0.063873 -0.346854 0.035418 0.156286 0.27332 0.633866 -0.039203 -0.530291 1.010144 0.429807 0.100322 0.133236 -0.180138 0.203715 -0.382205 -0.550591 0.161521 0.946068 0.298898 0.075916 0.392619 -0.429949 0.062933 -0.191945 -0.072731 -0.345391 -0.241397
  0.404856 -0.853708 0.205756 0.578145 0.471897 -0.213091 -1.132875 0.540508 -0.892875 -0.446198 -0.190983 0.523881 0.260015 -0.184172 0.625507 0.410312 -0.131076 -0.328645 0.134611 -0.281844 0.567296 -0.098774 0.069403 -0.587623 -0.308131 0.202231 0.371717 0.272264 0.017336 -0.457601
l -0.865427 -0.301326 0.456627 0.152087 -0.359742 -0.295227 -0.148765 0.277353 0.232835 0.661108 0.478596 0.496527 -1.176618 -0.513456 0.94804 -0.369488 -0.32195 -0.322455 -0.21812 0.240164 -0.152191 -0.771995 -0.447628 0.429338 0.665831 0.109911 -0.12267 0.025765 0.228088 0.141006
A 0.992122 0.266433 -0.383517 1.201932 -0.071627 -0.315873 0.155215 -0.485206 0.278011 -0.44059 0.087362 -0.335908 -0.079857 -0.50123 -0.780265 0.644103 0.161268 0.219203 0.871413 0.822695 0.145894 -0.125199 0.144792 0.55424 -0.230757 -0.50636 0.023041 0.423878 -0.41794 -0.00853
; 0.758273 1.130916 0.144333 -0.436616 -0.783085 0.434756 0.423766 -0.018051 1.062332 -0.186277 -0.017385 0.762827 -0.348938 0.213184 -0.474797 0.093817 0.194553 -0.552513 -0.347002 0.042911 0.012566 0.005043 -0.310567 -0.367802 -0.214372 -0.047874 0.055237 -0.204051 -0.094644 0.027087
g -0.103137 -0.183417 0.44997 0.306353 0.195295 0.731119 0.276241 -0.512799 0.779297 0.173049 -0.734129 0.182492 1.032422 0.172382 -0.345449 0.788971 0.112098 -0.535679 -0.326892 -0.591922 0.03721 -0.173872 0.15119 0.854055 -0.354309 0.438547 -0.428127 -0.592315 0.31996 -0.022149
3 -0.58716 -0.109087 -0.149691 0.150637 0.032384 -0.0263 0.035955 -0.754701 -0.101555 0.277495 0.380934 -0.253536 0.020614 -0.442507 -0.11534 0.419814 0.312409 -0.068286 0.071224 -0.209787 0.462467 0.373327 0.124865 -0.313127 0.136477 0.231362 0.073382 -0.313673 -0.243073 -0.02371
x 0.257131 -0.297367 -0.099986 -1.161602 -1.271761 -0.294074 1.512078 0.255339 -0.279743 -0.380562 0.333035 -0.165213 0.312207 -0.864884 0.531929 -0.514608 0.325471 -0.002645 -0.368394 0.686851 -0.088648 0.470363 -0.006962 0.851808 0.032227 -0.515835 0.100521 0.18445 0.068331 0.064674
J 0.120342 1.005305 0.006696 -0.5911 -0.427011 0.063387 -0.693821 -0.258427 -0.210701 0.10097 -0.242891 -0.642672 -0.548141 0.322163 0.08903 -0.407648 -0.043318 0.356579 -0.171735 0.624747 -0.541381 0.038746 0.028787 -0.054756 0.074327 -0.055432 0.151583 0.164956 0.109218 0.032738
_ -0.195768 0.124324 -0.020859 -0.1788 -0.106905 -0.296329 0.405891 -0.291689 -0.362474 0.066263 0.123056 -0.048242 0.118126 0.153208 -0.291327 -0.334747 0.087173 0.253357 0.186291 -0.078923 0.166775 -0.302704 0.02772 0.182664 0.109224 0.039934 0.288586 0.317065 0.025626 0.167384
4 -0.563716 -0.162947 -0.154452 -0.158578 0.172249 -0.245722 -0.278733 -0.104032 0.098808 -0.287766 0.136389 -0.074273 -0.061901 -0.123793 -0.113342 -0.107949 -0.014703 -0.096934 -0.015011 0.025798 0.188275 0.03635 0.291781 -0.250772 0.078526 0.334979 -0.112599 0.315716 -0.072448 -0.109987
I 0.114444 1.424259 -0.249747 0.595798 0.709957 -0.452378 0.943553 0.378209 0.235682 0.404999 -0.529244 -0.045784 0.059703 -0.193412 0.654138 0.261405 0.101334 0.324098 -0.403094 0.555248 0.36782 0.293826 0.002412 -0.352874 -0.255438 0.505036 0.115035 -0.24299 0.141201 0.470391
2 -0.356202 -0.107623 -0.336812 0.301052 0.216895 0.199762 -0.228748 -0.488265 0.248179 0.121917 0.113848 -0.158402 -0.202738 -0.193378 -0.061523 0.211535 0.143821 -0.344151 -0.008915 -0.343612 0.265078 -0.16899 -0.151146 0.118123 0.178607 0.152446 -0.098935 -0.089911 0.232763 -0.319545
" 0.250234 0.316326 2.085996 -0.015157 -0.103766 -1.412858 0.766161 -0.643527 -0.034545 0.576588 1.785253 -0.751212 1.597102 -0.361357 0.076316 0.288238 0.34061 -0.782468 0.778207 -0.419909 -0.078738 -0.596466 -0.529999 -0.616328 -0.481705 -0.26123 0.08712 0.458993 0.294303 -0.286174
z -0.774401 -0.516488 0.149155 -0.516212 0.032323 -0.96105 -0.929881 -0.109946 1.463961 0.034857 0.159893 -0.284297 -0.235889 -0.19996 -0.649231 0.296014 0.087488 0.386391 -0.617565 0.017506 0.418518 0.609778 -0.00997 -0.521645 -0.23246 0.176568 -0.180516 0.026612 0.751101 0.27935
P 0.696338 0.582386 0.303266 -1.036192 0.350585 0.420248 -0.002611 0.148195 -0.806656 -0.468022 -0.290191 -0.092347 -0.084646 0.028152 -0.53785 -0.189981 0.083897 -0.06804 0.598052 0.188173 -0.207743 0.098491 -0.328645 0.216576 -0.062998 0.190318 -0.077003 0.065641 0.076586 0.226865
# -0.1213 0.310353 0.590028 1.274824 0.597401 -0.557479 0.812602 0.617263 -0.433197 -0.525726 0.312971 1.774639 -0.034693 0.735258 0.043681 0.501765 0.563115 0.30091 -0.429985 0.684314 0.411195 -0.666947 0.870169 0.023948 0.078353 -0.643047 -0.318136 -0.121802 0.204879 0.591705
w -0.97864 -1.260689 0.567964 -0.208693 -1.366766 0.914334 -0.203093 -0.806234 -0.763434 -0.774629 0.334923 1.244081 -0.524901 0.600709 0.20187 -0.854015 -0.01518 -0.178325 0.465466 -0.059559 -0.605832 -0.216482 -0.131339 -0.494291 -0.640917 -0.201097 0.145483 0.369356 -0.130819 -0.081189
d -0.031756 -0.116996 1.344974 0.313288 -0.236709 0.056266 -0.619711 -0.11572 0.82373 0.278671 -0.044736 -0.701216 -0.754286 0.255684 0.316262 -0.467275 0.475682 -0.07481 -0.099629 -0.640224 0.554651 0.053759 0.095285 -0.105705 -0.122817 0.0298 0.000353 -0.368632 -0.275901 0.058901
